{"learner":{"attributes":{"scikit_learn":"{\"_estimator_type\": \"regressor\"}"},"feature_names":["T_Amb","GlobHor","WindVel"],"feature_types":["float","float","float"],"gradient_booster":{"model":{"gbtree_model_param":{"num_parallel_tree":"1","num_trees":"100"},"iteration_indptr":[0,1,2,3,4,5,6,7,8,9,10,11,12,13,14,15,16,17,18,19,20,21,22,23,24,25,26,27,28,29,30,31,32,33,34,35,36,37,38,39,40,41,42,43,44,45,46,47,48,49,50,51,52,53,54,55,56,57,58,59,60,61,62,63,64,65,66,67,68,69,70,71,72,73,74,75,76,77,78,79,80,81,82,83,84,85,86,87,88,89,90,91,92,93,94,95,96,97,98,99,100],"tree_info":[0,0,0,0,0,0,0,0,0,0,0,0,0,0,0,0,0,0,0,0,0,0,0,0,0,0,0,0,0,0,0,0,0,0,0,0,0,0,0,0,0,0,0,0,0,0,0,0,0,0,0,0,0,0,0,0,0,0,0,0,0,0,0,0,0,0,0,0,0,0,0,0,0,0,0,0,0,0,0,0,0,0,0,0,0,0,0,0,0,0,0,0,0,0,0,0,0,0,0,0],"trees":[{"base_weights":[-4.9283693E-7,6.840142E-1,-6.619007E-1,9.2340434E-1,1.2339023E-1,-2.342913E-1,-9.809986E-1,1.1772432E0,7.3121774E-1,3.718045E-1,-8.385394E-2,5.830113E-2,-4.4062355E-1,-6.7954266E-1,-1.1267184E0,1.3350836E0,9.097826E-1,9.6577746E-1,5.5452996E-1,-6.1477405E-1,3.910006E-1,1.2328561E-1,-1.9241932E-1,2.5425702E-1,-2.0525086E-1,-2.7185982E-1,-6.126825E-1,-5.016493E-1,-7.741872E-1,-9.640013E-1,-1.3705915E0,1.4379692E-2,1.3586678E-1,1.0055643E-1,7.755991E-2,-2.220124E-2,9.893591E-2,7.194572E-2,5.1651027E-2,-8.342967E-2,-1.1715254E-2,5.307088E-2,2.718077E-2,2.374556E-2,6.256431E-3,-5.683686E-3,-3.002345E-2,3.8528834E-2,1.4616611E-2,3.9674663E-3,-2.7660081E-2,-1.3876669E-2,-3.5645273E-2,-5.2881002E-2,-7.27231E-2,-4.175883E-2,-6.908484E-2,-6.556098E-2,-8.683048E-2,-8.188721E-2,-1.0313237E-1,-1.1865234E-1,-1.4420451E-1],"categories":[],"categories_nodes":[],"categories_segments":[],"categories_sizes":[],"default_left":[0,0,0,0,0,0,0,0,0,0,0,0,0,0,0,0,0,0,0,0,0,0,0,0,0,0,0,0,0,0,0,0,0,0,0,0,0,0,0,0,0,0,0,0,0,0,0,0,0,0,0,0,0,0,0,0,0,0,0,0,0,0,0],"id":0,"left_children":[1,3,5,7,9,11,13,15,17,19,21,23,25,27,29,31,33,35,37,39,41,43,45,47,49,51,53,55,57,59,61,-1,-1,-1,-1,-1,-1,-1,-1,-1,-1,-1,-1,-1,-1,-1,-1,-1,-1,-1,-1,-1,-1,-1,-1,-1,-1,-1,-1,-1,-1,-1,-1],"loss_changes":[1.9839482E3,2.89104E2,3.0364264E2,7.280371E1,3.3288815E1,5.7559494E1,5.5242676E1,2.6183594E1,3.5188995E1,5.808277E0,7.9620523E0,2.045179E1,1.6065292E1,6.649353E0,3.2726196E1,1.1211365E1,2.3560638E0,1.0555359E1,2.7260132E0,5.576954E-1,4.668247E0,8.30915E-1,3.3742752E0,3.1587515E0,2.9643211E0,3.148016E0,2.2670975E0,2.065342E0,2.4551544E0,4.2165833E0,2.7739258E0,0E0,0E0,0E0,0E0,0E0,0E0,0E0,0E0,0E0,0E0,0E0,0E0,0E0,0E0,0E0,0E0,0E0,0E0,0E0,0E0,0E0,0E0,0E0,0E0,0E0,0E0,0E0,0E0,0E0,0E0,0E0,0E0],"parents":[2147483647,0,0,1,1,2,2,3,3,4,4,5,5,6,6,7,7,8,8,9,9,10,10,11,11,12,12,13,13,14,14,15,15,16,16,17,17,18,18,19,19,20,20,21,21,22,22,23,23,24,24,25,25,26,26,27,27,28,28,29,29,30,30],"right_children":[2,4,6,8,10,12,14,16,18,20,22,24,26,28,30,32,34,36,38,40,42,44,46,48,50,52,54,56,58,60,62,-1,-1,-1,-1,-1,-1,-1,-1,-1,-1,-1,-1,-1,-1,-1,-1,-1,-1,-1,-1,-1,-1,-1,-1,-1,-1,-1,-1,-1,-1,-1,-1],"split_conditions":[4.92E0,1.71E1,2.3199E1,1.06E1,3.8202E0,1.7399E1,6.7001E0,3.35E0,3.0001E0,1.1299E0,1.9601E1,6.4201E0,6.9398E0,5.75E0,2.9101E1,1.0299E0,3.96E0,1.0299E0,3.2101E0,1.0299E0,3.1199E0,1.81E1,4.3299E0,1.3498E1,1.2799E1,2.0101E1,2.0801E1,2.83E1,2.6801E1,2.5201E1,7.29E0,1.4379692E-2,1.3586678E-1,1.0055643E-1,7.755991E-2,-2.220124E-2,9.893591E-2,7.194572E-2,5.1651027E-2,-8.342967E-2,-1.1715254E-2,5.307088E-2,2.718077E-2,2.374556E-2,6.256431E-3,-5.683686E-3,-3.002345E-2,3.8528834E-2,1.4616611E-2,3.9674663E-3,-2.7660081E-2,-1.3876669E-2,-3.5645273E-2,-5.2881002E-2,-7.27231E-2,-4.175883E-2,-6.908484E-2,-6.556098E-2,-8.683048E-2,-8.188721E-2,-1.0313237E-1,-1.1865234E-1,-1.4420451E-1],"split_indices":[1,0,0,0,1,0,1,1,1,1,0,1,1,1,0,1,1,1,1,1,1,0,1,0,0,0,0,0,0,0,1,0,0,0,0,0,0,0,0,0,0,0,0,0,0,0,0,0,0,0,0,0,0,0,0,0,0,0,0,0,0,0,0],"split_type":[0,0,0,0,0,0,0,0,0,0,0,0,0,0,0,0,0,0,0,0,0,0,0,0,0,0,0,0,0,0,0,0,0,0,0,0,0,0,0,0,0,0,0,0,0,0,0,0,0,0,0,0,0,0,0,0,0,0,0,0,0,0,0],"sum_hessian":[4.38E3,2.154E3,2.226E3,1.509E3,6.45E2,9.52E2,1.274E3,6.48E2,8.61E2,2.93E2,3.52E2,3.94E2,5.58E2,4.17E2,8.57E2,4.05E2,2.43E2,3.68E2,4.93E2,5E0,2.88E2,1.21E2,2.31E2,2.26E2,1.68E2,2.83E2,2.75E2,1.47E2,2.7E2,5.17E2,3.4E2,8E0,3.97E2,1.38E2,1.05E2,7E0,3.61E2,8.9E1,4.04E2,3E0,2E0,1.31E2,1.57E2,4.1E1,8E1,1.03E2,1.28E2,1.01E2,1.25E2,3.8E1,1.3E2,1.11E2,1.72E2,1.62E2,1.13E2,1.04E2,4.3E1,1.23E2,1.47E2,1.68E2,3.49E2,1E2,2.4E2],"tree_param":{"num_deleted":"0","num_feature":"3","num_nodes":"63","size_leaf_vector":"1"}},{"base_weights":[-8.002157E-5,6.158486E-1,-5.960953E-1,8.618053E-1,1.7322099E-1,-2.11015E-1,-8.8345647E-1,1.0791321E0,6.795597E-1,3.9221647E-1,-4.1726407E-2,5.2545983E-2,-3.9687473E-1,-6.122181E-1,-1.0145686E0,1.438483E0,9.725738E-1,9.181608E-1,5.3567016E-1,-7.974922E-1,4.1011044E-1,1.5155634E-1,-1.7122924E-1,2.2477746E-1,-1.9141895E-1,-2.7077854E-1,-5.8850247E-1,-4.5223308E-1,-6.9733083E-1,-8.776009E-1,-1.2526513E0,6.70984E-2,1.4674096E-1,3.606967E-2,1.0132016E-1,9.983111E-2,7.5417854E-2,5.0400373E-2,7.9412185E-2,-5.526352E-3,-9.348852E-2,4.988889E-2,2.1102143E-2,2.5364062E-2,6.210094E-3,-4.887182E-3,-2.7044365E-2,3.4516007E-2,1.2598236E-2,2.4539072E-3,-2.5234884E-2,-1.5725112E-2,-3.3388034E-2,-4.688362E-2,-6.467637E-2,-3.7622657E-2,-6.233343E-2,-6.3918434E-2,-8.7177694E-2,-7.374703E-2,-9.3761265E-2,-1.15419984E-1,-1.3826047E-1],"categories":[],"categories_nodes":[],"categories_segments":[],"categories_sizes":[],"default_left":[0,0,0,0,0,0,0,0,0,0,0,0,0,0,0,0,0,0,0,0,0,0,0,0,0,0,0,0,0,0,0,0,0,0,0,0,0,0,0,0,0,0,0,0,0,0,0,0,0,0,0,0,0,0,0,0,0,0,0,0,0,0,0],"id":1,"left_children":[1,3,5,7,9,11,13,15,17,19,21,23,25,27,29,31,33,35,37,39,41,43,45,47,49,51,53,55,57,59,61,-1,-1,-1,-1,-1,-1,-1,-1,-1,-1,-1,-1,-1,-1,-1,-1,-1,-1,-1,-1,-1,-1,-1,-1,-1,-1,-1,-1,-1,-1,-1,-1],"loss_changes":[1.6086449E3,2.3445966E2,2.4624701E2,5.412207E1,3.6309273E1,4.670391E1,4.472119E1,2.2724792E1,2.5463318E1,8.45932E0,9.7879095E0,1.6640312E1,1.3348061E1,5.376465E0,2.687976E1,2.1679688E0,1.179068E1,2.9666443E0,3.4790955E0,5.6019735E-1,6.5581284E0,1.4179711E0,2.8274531E0,2.7157402E0,2.164153E0,2.3760185E0,1.2375641E0,1.6901951E0,2.1916351E0,3.9169312E0,2.3831787E0,0E0,0E0,0E0,0E0,0E0,0E0,0E0,0E0,0E0,0E0,0E0,0E0,0E0,0E0,0E0,0E0,0E0,0E0,0E0,0E0,0E0,0E0,0E0,0E0,0E0,0E0,0E0,0E0,0E0,0E0,0E0,0E0],"parents":[2147483647,0,0,1,1,2,2,3,3,4,4,5,5,6,6,7,7,8,8,9,9,10,10,11,11,12,12,13,13,14,14,15,15,16,16,17,17,18,18,19,19,20,20,21,21,22,22,23,23,24,24,25,25,26,26,27,27,28,28,29,29,30,30],"right_children":[2,4,6,8,10,12,14,16,18,20,22,24,26,28,30,32,34,36,38,40,42,44,46,48,50,52,54,56,58,60,62,-1,-1,-1,-1,-1,-1,-1,-1,-1,-1,-1,-1,-1,-1,-1,-1,-1,-1,-1,-1,-1,-1,-1,-1,-1,-1,-1,-1,-1,-1,-1,-1],"split_conditions":[4.92E0,1.5801E1,2.3199E1,3.0001E0,3.8001E0,1.7399E1,6.7001E0,7.7018E0,9.7006E0,1.0299E0,1.9601E1,6.4801E0,7.4E0,5.75E0,2.9601E1,1.1299E0,1.2701E0,3.8202E0,1.79E1,1.62E1,2.0599E1,1.81E1,4.3299E0,1.3498E1,1.2799E1,1.98E1,1.98E1,2.83E1,2.9601E1,2.5201E1,7.8099E0,6.70984E-2,1.4674096E-1,3.606967E-2,1.0132016E-1,9.983111E-2,7.5417854E-2,5.0400373E-2,7.9412185E-2,-5.526352E-3,-9.348852E-2,4.988889E-2,2.1102143E-2,2.5364062E-2,6.210094E-3,-4.887182E-3,-2.7044365E-2,3.4516007E-2,1.2598236E-2,2.4539072E-3,-2.5234884E-2,-1.5725112E-2,-3.3388034E-2,-4.688362E-2,-6.467637E-2,-3.7622657E-2,-6.233343E-2,-6.3918434E-2,-8.7177694E-2,-7.374703E-2,-9.3761265E-2,-1.15419984E-1,-1.3826047E-1],"split_indices":[1,0,0,1,1,0,1,0,0,1,0,1,1,1,0,1,1,1,2,0,0,0,1,0,0,0,0,0,0,0,1,0,0,0,0,0,0,0,0,0,0,0,0,0,0,0,0,0,0,0,0,0,0,0,0,0,0,0,0,0,0,0,0],"split_type":[0,0,0,0,0,0,0,0,0,0,0,0,0,0,0,0,0,0,0,0,0,0,0,0,0,0,0,0,0,0,0,0,0,0,0,0,0,0,0,0,0,0,0,0,0,0,0,0,0,0,0,0,0,0,0,0,0,0,0,0,0,0,0],"sum_hessian":[4.38E3,2.154E3,2.226E3,1.384E3,7.7E2,9.52E2,1.274E3,6.29E2,7.55E2,3.81E2,3.89E2,3.94E2,5.58E2,4.17E2,8.57E2,1.41E2,4.88E2,2.82E2,4.73E2,5E0,3.76E2,1.56E2,2.33E2,2.31E2,1.63E2,3.38E2,2.2E2,1.47E2,2.7E2,5.47E2,3.1E2,6E0,1.35E2,3.1E1,4.57E2,1.86E2,9.6E1,4.24E2,4.9E1,1E0,4E0,2.59E2,1.17E2,7.2E1,8.4E1,1.05E2,1.28E2,1.03E2,1.28E2,3.6E1,1.27E2,1.22E2,2.16E2,7.5E1,1.45E2,1.04E2,4.3E1,2.06E2,6.4E1,1.68E2,3.79E2,1.82E2,1.28E2],"tree_param":{"num_deleted":"0","num_feature":"3","num_nodes":"63","size_leaf_vector":"1"}},{"base_weights":[-1.1325236E-4,5.204754E-1,-5.7206255E-1,7.34739E-1,6.1338905E-2,-2.4189372E-1,-8.2394665E-1,9.6517444E-1,5.867805E-1,2.9439253E-1,-8.910543E-2,3.1783577E-2,-3.8593942E-1,-7.176182E-1,-1.0722222E0,1.1853228E0,8.191719E-1,7.560063E-1,4.0980875E-1,3.4106666E-1,-4.050398E-2,8.412119E-2,-2.0063883E-1,1.993027E-1,-1.5632425E-1,-2.6785725E-1,-5.3927696E-1,-5.6644183E-1,-8.410303E-1,-8.8649243E-1,-1.2035323E0,3.523594E-2,1.23904884E-1,9.1362774E-2,6.696667E-2,-2.1275295E-2,7.7057734E-2,5.1807877E-2,3.487827E-2,4.5512836E-2,2.3223773E-2,-7.224574E-2,4.3384437E-3,-3.406882E-3,1.492703E-2,-4.9589495E-3,-2.7423117E-2,3.5614103E-2,1.546807E-2,2.2150658E-3,-2.1388898E-2,-1.6080141E-2,-3.3515587E-2,-4.549944E-2,-6.246394E-2,-4.8096314E-2,-6.544304E-2,-7.342912E-2,-9.201003E-2,-7.683699E-2,-9.82927E-2,-1.1297554E-1,-1.3657005E-1],"categories":[],"categories_nodes":[],"categories_segments":[],"categories_sizes":[],"default_left":[0,0,0,0,0,0,0,0,0,0,0,0,0,0,0,0,0,0,0,0,0,0,0,0,0,0,0,0,0,0,0,0,0,0,0,0,0,0,0,0,0,0,0,0,0,0,0,0,0,0,0,0,0,0,0,0,0,0,0,0,0,0,0],"id":2,"left_children":[1,3,5,7,9,11,13,15,17,19,21,23,25,27,29,31,33,35,37,39,41,43,45,47,49,51,53,55,57,59,61,-1,-1,-1,-1,-1,-1,-1,-1,-1,-1,-1,-1,-1,-1,-1,-1,-1,-1,-1,-1,-1,-1,-1,-1,-1,-1,-1,-1,-1,-1,-1,-1],"loss_changes":[1.304742E3,2.2563007E2,1.734477E2,5.2757996E1,2.565626E1,3.5689213E1,3.0486633E1,1.8635742E1,2.829068E1,4.499916E0,8.614525E0,9.894305E0,1.0592659E1,1.5046234E1,7.5421143E0,1.0348572E1,4.6131897E0,7.03833E0,2.9181213E0,3.0224285E0,2.090831E0,1.352581E0,2.9988565E0,1.1066532E0,1.5252688E0,2.374094E0,1.5647964E0,2.5207062E0,3.1729736E0,9.534149E-1,8.9782715E-1,0E0,0E0,0E0,0E0,0E0,0E0,0E0,0E0,0E0,0E0,0E0,0E0,0E0,0E0,0E0,0E0,0E0,0E0,0E0,0E0,0E0,0E0,0E0,0E0,0E0,0E0,0E0,0E0,0E0,0E0,0E0,0E0],"parents":[2147483647,0,0,1,1,2,2,3,3,4,4,5,5,6,6,7,7,8,8,9,9,10,10,11,11,12,12,13,13,14,14,15,15,16,16,17,17,18,18,19,19,20,20,21,21,22,22,23,23,24,24,25,25,26,26,27,27,28,28,29,29,30,30],"right_children":[2,4,6,8,10,12,14,16,18,20,22,24,26,28,30,32,34,36,38,40,42,44,46,48,50,52,54,56,58,60,62,-1,-1,-1,-1,-1,-1,-1,-1,-1,-1,-1,-1,-1,-1,-1,-1,-1,-1,-1,-1,-1,-1,-1,-1,-1,-1,-1,-1,-1,-1,-1,-1],"split_conditions":[5.1899E0,1.72E1,2.36E1,1.03E1,3.8202E0,1.6898E1,3.0199E1,2.8801E0,3.2101E0,2.41E1,2.0801E1,6.4801E0,7.4E0,7.1598E0,7.27E0,1.1299E0,3.7299E0,1.0299E0,1.2799E1,3.15E0,1.2701E0,7.9999E0,4.3299E0,5.48E0,1.2799E1,1.98E1,2.0801E1,2.6701E1,2.6298E1,6.7001E0,3.32E1,3.523594E-2,1.23904884E-1,9.1362774E-2,6.696667E-2,-2.1275295E-2,7.7057734E-2,5.1807877E-2,3.487827E-2,4.5512836E-2,2.3223773E-2,-7.224574E-2,4.3384437E-3,-3.406882E-3,1.492703E-2,-4.9589495E-3,-2.7423117E-2,3.5614103E-2,1.546807E-2,2.2150658E-3,-2.1388898E-2,-1.6080141E-2,-3.3515587E-2,-4.549944E-2,-6.246394E-2,-4.8096314E-2,-6.544304E-2,-7.342912E-2,-9.201003E-2,-7.683699E-2,-9.82927E-2,-1.1297554E-1,-1.3657005E-1],"split_indices":[1,0,0,0,1,0,0,1,1,0,0,1,1,1,1,1,1,1,0,1,1,2,1,1,0,0,0,0,0,1,0,0,0,0,0,0,0,0,0,0,0,0,0,0,0,0,0,0,0,0,0,0,0,0,0,0,0,0,0,0,0,0,0],"split_type":[0,0,0,0,0,0,0,0,0,0,0,0,0,0,0,0,0,0,0,0,0,0,0,0,0,0,0,0,0,0,0,0,0,0,0,0,0,0,0,0,0,0,0,0,0,0,0,0,0,0,0,0,0,0,0,0,0,0,0,0,0,0,0],"sum_hessian":[4.38E3,2.293E3,2.087E3,1.563E3,7.3E2,9.04E2,1.183E3,6.09E2,9.54E2,2.86E2,4.44E2,3.12E2,5.92E2,8.31E2,3.52E2,2.4E2,3.69E2,4.86E2,4.68E2,2.51E2,3.5E1,1.74E2,2.7E2,1.65E2,1.47E2,3.36E2,2.56E2,3.76E2,4.55E2,1.49E2,2.03E2,1.5E1,2.25E2,2.23E2,1.46E2,7E0,4.79E2,1.66E2,3.02E2,1.21E2,1.3E2,3E0,3.2E1,6.2E1,1.12E2,8.9E1,1.81E2,3.5E1,1.3E2,3.6E1,1.11E2,1.31E2,2.05E2,1.32E2,1.24E2,1.94E2,1.82E2,1.98E2,2.57E2,7.1E1,7.8E1,1.45E2,5.8E1],"tree_param":{"num_deleted":"0","num_feature":"3","num_nodes":"63","size_leaf_vector":"1"}},{"base_weights":[-1.9056855E-4,4.9959868E-1,-4.838213E-1,7.416396E-1,1.9411355E-1,-1.6087477E-1,-7.0934236E-1,8.887908E-1,5.558984E-1,3.8585442E-1,3.198058E-2,4.1669387E-2,-3.135403E-1,-5.129539E-1,-8.3414435E-1,1.1377661E0,7.94114E-1,7.210108E-1,4.247074E-1,-6.654321E-1,4.0203342E-1,1.8606567E-1,-1.2402016E-1,1.8694168E-1,-1.477647E-1,-1.8558086E-1,-4.4325346E-1,-3.886153E-1,-6.2209404E-1,-6.9810873E-1,-1.0027014E0,5.6784034E-2,1.1607062E-1,-1.5432718E-2,8.102428E-2,7.782085E-2,5.8605094E-2,3.3401094E-2,5.345701E-2,-1.200161E-2,-8.595953E-2,4.4306375E-2,1.0737614E-2,2.6862962E-2,6.472479E-3,-7.012392E-3,-3.4140054E-2,2.8998766E-2,1.0300939E-2,3.4606361E-3,-2.0150213E-2,-1.1390987E-2,-2.7665904E-2,-3.584533E-2,-4.9433246E-2,-2.7493645E-2,-4.6147995E-2,-4.2243958E-2,-6.664574E-2,-5.9679706E-2,-7.444401E-2,-9.454374E-2,-1.2038811E-1],"categories":[],"categories_nodes":[],"categories_segments":[],"categories_sizes":[],"default_left":[0,0,0,0,0,0,0,0,0,0,0,0,0,0,0,0,0,0,0,0,0,0,0,0,0,0,0,0,0,0,0,0,0,0,0,0,0,0,0,0,0,0,0,0,0,0,0,0,0,0,0,0,0,0,0,0,0,0,0,0,0,0,0],"id":3,"left_children":[1,3,5,7,9,11,13,15,17,19,21,23,25,27,29,31,33,35,37,39,41,43,45,47,49,51,53,55,57,59,61,-1,-1,-1,-1,-1,-1,-1,-1,-1,-1,-1,-1,-1,-1,-1,-1,-1,-1,-1,-1,-1,-1,-1,-1,-1,-1,-1,-1,-1,-1,-1,-1],"loss_changes":[1.0591884E3,1.5919653E2,1.6208112E2,3.235901E1,2.964515E1,2.8368092E1,3.1704346E1,1.4866272E1,1.1260895E1,7.700363E0,1.2474444E1,1.0897836E1,8.598503E0,6.706253E0,1.7643799E1,1.7203827E0,7.5901184E0,1.3579865E0,2.8106918E0,6.381328E-1,5.1631546E0,2.5974102E0,2.9987838E0,1.9074788E0,1.6925998E0,1.6983166E0,9.44664E-1,1.8776474E0,2.118805E0,1.6492157E0,2.9515076E0,0E0,0E0,0E0,0E0,0E0,0E0,0E0,0E0,0E0,0E0,0E0,0E0,0E0,0E0,0E0,0E0,0E0,0E0,0E0,0E0,0E0,0E0,0E0,0E0,0E0,0E0,0E0,0E0,0E0,0E0,0E0,0E0],"parents":[2147483647,0,0,1,1,2,2,3,3,4,4,5,5,6,6,7,7,8,8,9,9,10,10,11,11,12,12,13,13,14,14,15,15,16,16,17,17,18,18,19,19,20,20,21,21,22,22,23,23,24,24,25,25,26,26,27,27,28,28,29,29,30,30],"right_children":[2,4,6,8,10,12,14,16,18,20,22,24,26,28,30,32,34,36,38,40,42,44,46,48,50,52,54,56,58,60,62,-1,-1,-1,-1,-1,-1,-1,-1,-1,-1,-1,-1,-1,-1,-1,-1,-1,-1,-1,-1,-1,-1,-1,-1,-1,-1,-1,-1,-1,-1,-1,-1],"split_conditions":[4.92E0,1.46E1,2.29E1,3.2101E0,3.61E0,1.7399E1,6.96E0,8.097E0,9.7006E0,1.0299E0,1.9601E1,6.4001E0,6.9398E0,2.6701E1,2.84E1,1.1299E0,1.0299E0,3.9799E0,9.4997E0,1.62E1,2.22E1,1.8E1,2.7E1,1.3498E1,1.2799E1,2.0801E1,1.98E1,5.75E0,5.61E0,2.48E1,3.32E1,5.6784034E-2,1.1607062E-1,-1.5432718E-2,8.102428E-2,7.782085E-2,5.8605094E-2,3.3401094E-2,5.345701E-2,-1.200161E-2,-8.595953E-2,4.4306375E-2,1.0737614E-2,2.6862962E-2,6.472479E-3,-7.012392E-3,-3.4140054E-2,2.8998766E-2,1.0300939E-2,3.4606361E-3,-2.0150213E-2,-1.1390987E-2,-2.7665904E-2,-3.584533E-2,-4.9433246E-2,-2.7493645E-2,-4.6147995E-2,-4.2243958E-2,-6.664574E-2,-5.9679706E-2,-7.444401E-2,-9.454374E-2,-1.2038811E-1],"split_indices":[1,0,0,1,1,0,1,0,0,1,0,1,1,0,0,1,1,1,2,0,0,0,0,0,0,0,0,1,1,0,0,0,0,0,0,0,0,0,0,0,0,0,0,0,0,0,0,0,0,0,0,0,0,0,0,0,0,0,0,0,0,0,0],"split_type":[0,0,0,0,0,0,0,0,0,0,0,0,0,0,0,0,0,0,0,0,0,0,0,0,0,0,0,0,0,0,0,0,0,0,0,0,0,0,0,0,0,0,0,0,0,0,0,0,0,0,0,0,0,0,0,0,0,0,0,0,0,0,0],"sum_hessian":[4.38E3,2.154E3,2.226E3,1.201E3,9.53E2,9.16E2,1.31E3,6.68E2,5.33E2,4.36E2,5.17E2,3.94E2,5.22E2,5.11E2,7.99E2,1.81E2,4.87E2,2.34E2,2.99E2,6E0,4.3E2,2.6E2,2.57E2,2.23E2,1.71E2,2.64E2,2.58E2,2.41E2,2.7E2,4.45E2,3.54E2,8E0,1.73E2,8E0,4.79E2,1.61E2,7.3E1,1.66E2,1.33E2,2E0,4E0,3.77E2,5.3E1,1.54E2,1.06E2,2.07E2,5E1,9.9E1,1.24E2,3.9E1,1.32E2,1.49E2,1.15E2,1E2,1.58E2,9.6E1,1.45E2,5.1E1,2.19E2,1.44E2,3.01E2,2.8E2,7.4E1],"tree_param":{"num_deleted":"0","num_feature":"3","num_nodes":"63","size_leaf_vector":"1"}},{"base_weights":[-2.221911E-4,4.2246783E-1,-4.6461427E-1,5.966179E-1,4.9289726E-2,-1.9702315E-1,-6.687573E-1,7.304445E-1,4.1742626E-1,2.1614482E-1,-8.780348E-2,2.6021458E-2,-3.1441933E-1,-5.839332E-1,-8.8377655E-1,9.108232E-1,6.082684E-1,5.956122E-1,3.148683E-1,2.631716E-1,-1.3705839E-2,3.4925412E-2,-2.119343E-1,1.6189173E-1,-1.265494E-1,-2.2628641E-1,-4.5552227E-1,-4.5728642E-1,-6.863818E-1,-7.3185116E-1,-9.9153507E-1,2.681983E-2,9.560614E-2,6.637661E-2,4.4015903E-2,1.2899438E-2,6.389754E-2,3.900553E-2,2.666838E-2,3.8058545E-2,1.7324803E-2,-6.521516E-2,3.384025E-3,-2.4055852E-2,6.139738E-3,-7.559992E-3,-2.6184155E-2,3.0215202E-2,1.2211111E-2,-2.7971177E-3,-1.9729218E-2,-3.1357754E-2,-1.7231371E-2,-3.877916E-2,-5.192572E-2,-3.2133445E-2,-4.9144667E-2,-6.1041366E-2,-7.681554E-2,-6.5215304E-2,-8.392579E-2,-9.550135E-2,-1.2183672E-1],"categories":[],"categories_nodes":[],"categories_segments":[],"categories_sizes":[],"default_left":[0,0,0,0,0,0,0,0,0,0,0,0,0,0,0,0,0,0,0,0,0,0,0,0,0,0,0,0,0,0,0,0,0,0,0,0,0,0,0,0,0,0,0,0,0,0,0,0,0,0,0,0,0,0,0,0,0,0,0,0,0,0,0],"id":4,"left_children":[1,3,5,7,9,11,13,15,17,19,21,23,25,27,29,31,33,35,37,39,41,43,45,47,49,51,53,55,57,59,61,-1,-1,-1,-1,-1,-1,-1,-1,-1,-1,-1,-1,-1,-1,-1,-1,-1,-1,-1,-1,-1,-1,-1,-1,-1,-1,-1,-1,-1,-1,-1,-1],"loss_changes":[8.601598E2,1.4905536E2,1.1392911E2,3.7200745E1,1.6740385E1,2.3705235E1,2.1078735E1,1.9147919E1,1.2074585E1,3.5706244E0,6.1316457E0,6.5089283E0,7.2713547E0,1.0740631E1,4.725952E0,1.0180145E1,4.708542E0,4.8546906E0,1.4465561E0,2.8270302E0,1.752338E0,1.4951676E0,1.3410196E0,8.893242E-1,1.0265887E0,1.6750259E0,7.78553E-1,1.6254349E0,2.4446259E0,6.682129E-1,4.270172E-1,0E0,0E0,0E0,0E0,0E0,0E0,0E0,0E0,0E0,0E0,0E0,0E0,0E0,0E0,0E0,0E0,0E0,0E0,0E0,0E0,0E0,0E0,0E0,0E0,0E0,0E0,0E0,0E0,0E0,0E0,0E0,0E0],"parents":[2147483647,0,0,1,1,2,2,3,3,4,4,5,5,6,6,7,7,8,8,9,9,10,10,11,11,12,12,13,13,14,14,15,15,16,16,17,17,18,18,19,19,20,20,21,21,22,22,23,23,24,24,25,25,26,26,27,27,28,28,29,29,30,30],"right_children":[2,4,6,8,10,12,14,16,18,20,22,24,26,28,30,32,34,36,38,40,42,44,46,48,50,52,54,56,58,60,62,-1,-1,-1,-1,-1,-1,-1,-1,-1,-1,-1,-1,-1,-1,-1,-1,-1,-1,-1,-1,-1,-1,-1,-1,-1,-1,-1,-1,-1,-1,-1,-1],"split_conditions":[5.1899E0,1.72E1,2.36E1,1.23E1,3.96E0,1.6898E1,3.03E1,2.8801E0,2.94E0,2.3799E1,2.22E1,6.4801E0,7.5299E0,7.1598E0,7.27E0,1.1299E0,4.1301E0,1.47E0,3.45E0,3.15E0,1.2701E0,5.6E0,4.3299E0,5.48E0,7.1E0,9.2002E0,2.0801E1,5.75E0,2.6701E1,3.29E1,3.5E1,2.681983E-2,9.560614E-2,6.637661E-2,4.4015903E-2,1.2899438E-2,6.389754E-2,3.900553E-2,2.666838E-2,3.8058545E-2,1.7324803E-2,-6.521516E-2,3.384025E-3,-2.4055852E-2,6.139738E-3,-7.559992E-3,-2.6184155E-2,3.0215202E-2,1.2211111E-2,-2.7971177E-3,-1.9729218E-2,-3.1357754E-2,-1.7231371E-2,-3.877916E-2,-5.192572E-2,-3.2133445E-2,-4.9144667E-2,-6.1041366E-2,-7.681554E-2,-6.5215304E-2,-8.392579E-2,-9.550135E-2,-1.2183672E-1],"split_indices":[1,0,0,0,1,0,0,1,1,0,0,1,1,1,1,1,1,1,1,1,1,2,1,1,1,2,0,1,0,0,0,0,0,0,0,0,0,0,0,0,0,0,0,0,0,0,0,0,0,0,0,0,0,0,0,0,0,0,0,0,0,0,0],"split_type":[0,0,0,0,0,0,0,0,0,0,0,0,0,0,0,0,0,0,0,0,0,0,0,0,0,0,0,0,0,0,0,0,0,0,0,0,0,0,0,0,0,0,0,0,0,0,0,0,0,0,0,0,0,0,0,0,0,0,0,0,0,0,0],"sum_hessian":[4.38E3,2.293E3,2.087E3,1.563E3,7.3E2,9.04E2,1.183E3,8.93E2,6.7E2,3.29E2,4.01E2,3.12E2,5.92E2,8.51E2,3.32E2,3.58E2,5.35E2,2.43E2,4.27E2,2.73E2,5.6E1,2.02E2,1.99E2,1.65E2,1.47E2,3.66E2,2.26E2,3.83E2,4.68E2,1.41E2,1.91E2,2.4E1,3.34E2,4E2,1.35E2,2.1E1,2.22E2,1.64E2,2.63E2,1.17E2,1.56E2,3E0,5.3E1,1.7E1,1.85E2,5.4E1,1.45E2,3.5E1,1.3E2,6.2E1,8.5E1,1.38E2,2.28E2,1.13E2,1.13E2,7.9E1,3.04E2,2.47E2,2.21E2,8.5E1,5.6E1,1.69E2,2.2E1],"tree_param":{"num_deleted":"0","num_feature":"3","num_nodes":"63","size_leaf_vector":"1"}},{"base_weights":[-2.885543E-4,3.8035947E-1,-4.184908E-1,5.966413E-1,1.35409E-1,-1.4833505E-1,-5.83136E-1,7.274486E-1,4.411325E-1,2.4927613E-1,-7.5814284E-2,2.3483021E-2,-2.6006573E-1,-5.03864E-1,-7.8417075E-1,9.9838537E-1,6.5910864E-1,5.949398E-1,3.4105933E-1,3.7249163E-1,1.4211042E-1,8.316597E-2,-1.8668921E-1,1.4595853E-1,-1.14046834E-1,-1.4220738E-1,-3.3951437E-1,-3.9127737E-1,-5.9688056E-1,-6.484257E-1,-8.7907904E-1,6.722887E-2,1.0347575E-1,-1.11005595E-2,6.72625E-2,5.5179346E-2,7.989397E-2,2.5702162E-2,4.463539E-2,-3.301096E-2,3.9126422E-2,2.1508696E-2,5.5235727E-3,-5.3926434E-2,1.0309352E-2,-1.3003898E-2,-3.0369123E-2,-3.7988839E-3,1.7286118E-2,2.896113E-3,-1.6027225E-2,-2.814736E-2,-6.711121E-3,-2.638264E-2,-3.8463395E-2,-3.0893791E-2,-4.610666E-2,-5.1721442E-2,-6.700116E-2,-5.6542844E-2,-7.399449E-2,-8.234446E-2,-1.00939505E-1],"categories":[],"categories_nodes":[],"categories_segments":[],"categories_sizes":[],"default_left":[0,0,0,0,0,0,0,0,0,0,0,0,0,0,0,0,0,0,0,0,0,0,0,0,0,0,0,0,0,0,0,0,0,0,0,0,0,0,0,0,0,0,0,0,0,0,0,0,0,0,0,0,0,0,0,0,0,0,0,0,0,0,0],"id":5,"left_children":[1,3,5,7,9,11,13,15,17,19,21,23,25,27,29,31,33,35,37,39,41,43,45,47,49,51,53,55,57,59,61,-1,-1,-1,-1,-1,-1,-1,-1,-1,-1,-1,-1,-1,-1,-1,-1,-1,-1,-1,-1,-1,-1,-1,-1,-1,-1,-1,-1,-1,-1,-1,-1],"loss_changes":[6.9756116E2,1.2145148E2,9.2787415E1,2.4455322E1,2.5922247E1,1.5210407E1,2.0274445E1,1.1562378E1,8.401207E0,9.190197E0,6.678504E0,5.2888303E0,4.446289E0,9.537201E0,4.1324005E0,8.581238E-1,5.591522E0,1.4867554E0,2.902687E0,4.415802E0,2.3718896E0,1.9905407E0,1.4385953E0,8.280461E-1,9.830111E-1,2.0204902E0,8.7521744E-1,2.2997818E0,2.6189423E0,7.5136566E-1,7.058258E-1,0E0,0E0,0E0,0E0,0E0,0E0,0E0,0E0,0E0,0E0,0E0,0E0,0E0,0E0,0E0,0E0,0E0,0E0,0E0,0E0,0E0,0E0,0E0,0E0,0E0,0E0,0E0,0E0,0E0,0E0,0E0,0E0],"parents":[2147483647,0,0,1,1,2,2,3,3,4,4,5,5,6,6,7,7,8,8,9,9,10,10,11,11,12,12,13,13,14,14,15,15,16,16,17,17,18,18,19,19,20,20,21,21,22,22,23,23,24,24,25,25,26,26,27,27,28,28,29,29,30,30],"right_children":[2,4,6,8,10,12,14,16,18,20,22,24,26,28,30,32,34,36,38,40,42,44,46,48,50,52,54,56,58,60,62,-1,-1,-1,-1,-1,-1,-1,-1,-1,-1,-1,-1,-1,-1,-1,-1,-1,-1,-1,-1,-1,-1,-1,-1,-1,-1,-1,-1,-1,-1,-1,-1],"split_conditions":[5.1899E0,1.45E1,2.26E1,3.2101E0,2.0801E1,1.6898E1,3E1,7.0976E0,9.2003E0,3.45E0,4.1301E0,6.4801E0,6.7001E0,7.1598E0,7.27E0,1.47E0,1.0299E0,1.49E1,9.4997E0,1.1299E0,1.8E1,1.8E0,2.6198E1,6.8001E0,1.2799E1,8.9998E0,7.5299E0,2.6099E1,2.6198E1,3.23E1,3.32E1,6.722887E-2,1.0347575E-1,-1.11005595E-2,6.72625E-2,5.5179346E-2,7.989397E-2,2.5702162E-2,4.463539E-2,-3.301096E-2,3.9126422E-2,2.1508696E-2,5.5235727E-3,-5.3926434E-2,1.0309352E-2,-1.3003898E-2,-3.0369123E-2,-3.7988839E-3,1.7286118E-2,2.896113E-3,-1.6027225E-2,-2.814736E-2,-6.711121E-3,-2.638264E-2,-3.8463395E-2,-3.0893791E-2,-4.610666E-2,-5.1721442E-2,-6.700116E-2,-5.6542844E-2,-7.399449E-2,-8.234446E-2,-1.00939505E-1],"split_indices":[1,0,0,1,0,0,0,0,0,1,1,1,1,1,1,1,1,2,2,1,0,1,0,2,0,2,1,0,0,0,0,0,0,0,0,0,0,0,0,0,0,0,0,0,0,0,0,0,0,0,0,0,0,0,0,0,0,0,0,0,0,0,0],"split_type":[0,0,0,0,0,0,0,0,0,0,0,0,0,0,0,0,0,0,0,0,0,0,0,0,0,0,0,0,0,0,0,0,0,0,0,0,0,0,0,0,0,0,0,0,0,0,0,0,0,0,0,0,0,0,0,0,0,0,0,0,0,0,0],"sum_hessian":[4.38E3,2.293E3,2.087E3,1.217E3,1.076E3,7.91E2,1.296E3,6.59E2,5.58E2,6.99E2,3.77E2,3.12E2,4.79E2,9.32E2,3.64E2,1.3E2,5.29E2,2.18E2,3.4E2,3.24E2,3.75E2,1.55E2,2.22E2,1.65E2,1.47E2,1.94E2,2.85E2,4.24E2,5.08E2,1.53E2,2.11E2,1.5E1,1.15E2,9E0,5.2E2,1.83E2,3.5E1,1.91E2,1.49E2,8E0,3.16E2,2.03E2,1.72E2,4E0,1.51E2,1.51E2,7.1E1,2.1E1,1.44E2,3.6E1,1.11E2,6.7E1,1.27E2,1.09E2,1.76E2,1.97E2,2.27E2,2.47E2,2.61E2,8.4E1,6.9E1,1.53E2,5.8E1],"tree_param":{"num_deleted":"0","num_feature":"3","num_nodes":"63","size_leaf_vector":"1"}},{"base_weights":[-3.1240116E-4,3.6790586E-1,-3.5113695E-1,5.443029E-1,1.4336747E-1,-8.5291475E-2,-4.9979597E-1,6.9634867E-1,4.4118783E-1,2.6079908E-1,1.1237231E-3,2.780681E-2,-2.4684687E-1,-4.064749E-1,-6.5532726E-1,9.254402E-1,6.212119E-1,5.6494266E-1,3.3861426E-1,-5.886861E-1,2.719473E-1,1.7997251E-1,-6.775696E-2,1.05463676E-1,-1.2288494E-1,-6.0000677E-2,-2.8054494E-1,-3.0359825E-1,-5.0732315E-1,-5.007108E-1,-7.4533486E-1,6.1243515E-2,9.689615E-2,2.8572103E-2,6.685458E-2,6.413492E-2,4.8504885E-2,3.0834166E-2,5.5555593E-2,-9.8608015E-3,-7.6499574E-2,3.660388E-2,1.933506E-2,4.4874316E-3,2.2500703E-2,-3.212889E-3,-2.6568089E-2,2.0682445E-2,2.7862964E-3,-2.2038473E-2,-7.0708552E-3,-1.6141083E-3,-1.2936898E-2,-1.8909745E-2,-3.141349E-2,-2.0627154E-2,-3.5271406E-2,-4.336517E-2,-5.559228E-2,-4.069778E-2,-5.701048E-2,-6.852893E-2,-8.6195715E-2],"categories":[],"categories_nodes":[],"categories_segments":[],"categories_sizes":[],"default_left":[0,0,0,0,0,0,0,0,0,0,0,0,0,0,0,0,0,0,0,0,0,0,0,0,0,0,0,0,0,0,0,0,0,0,0,0,0,0,0,0,0,0,0,0,0,0,0,0,0,0,0,0,0,0,0,0,0,0,0,0,0,0,0],"id":6,"left_children":[1,3,5,7,9,11,13,15,17,19,21,23,25,27,29,31,33,35,37,39,41,43,45,47,49,51,53,55,57,59,61,-1,-1,-1,-1,-1,-1,-1,-1,-1,-1,-1,-1,-1,-1,-1,-1,-1,-1,-1,-1,-1,-1,-1,-1,-1,-1,-1,-1,-1,-1,-1,-1],"loss_changes":[5.660668E2,8.460367E1,8.864096E1,1.8459595E1,1.5734793E1,1.4733805E1,2.0619781E1,7.721878E0,8.897583E0,5.0467415E0,5.2725034E0,5.5715275E0,2.073557E0,9.204163E0,7.113968E0,1.0003891E0,5.6210938E0,1.6606293E0,2.4162483E0,5.294037E-1,3.700821E0,7.139089E-1,2.1704228E0,2.464057E0,8.0854154E-1,1.5612006E-1,8.037529E-1,2.0735893E0,1.3844299E0,1.075386E0,1.7761993E0,0E0,0E0,0E0,0E0,0E0,0E0,0E0,0E0,0E0,0E0,0E0,0E0,0E0,0E0,0E0,0E0,0E0,0E0,0E0,0E0,0E0,0E0,0E0,0E0,0E0,0E0,0E0,0E0,0E0,0E0,0E0,0E0],"parents":[2147483647,0,0,1,1,2,2,3,3,4,4,5,5,6,6,7,7,8,8,9,9,10,10,11,11,12,12,13,13,14,14,15,15,16,16,17,17,18,18,19,19,20,20,21,21,22,22,23,23,24,24,25,25,26,26,27,27,28,28,29,29,30,30],"right_children":[2,4,6,8,10,12,14,16,18,20,22,24,26,28,30,32,34,36,38,40,42,44,46,48,50,52,54,56,58,60,62,-1,-1,-1,-1,-1,-1,-1,-1,-1,-1,-1,-1,-1,-1,-1,-1,-1,-1,-1,-1,-1,-1,-1,-1,-1,-1,-1,-1,-1,-1,-1,-1],"split_conditions":[4.89E0,1.46E1,2.18E1,2.8801E0,3.8001E0,6.8402E0,2.84E1,7.6013E0,9.7006E0,1.0299E0,1.81E1,1.8301E1,1.47E1,7.2301E0,7.02E0,1.47E0,1.47E0,3.5199E0,1.79E1,1.62E1,3.0001E0,8.5001E0,2.7E1,5.7E0,8.0002E0,7.4301E0,7.34E0,5.75E0,2.48E1,6.22E0,8.05E0,6.1243515E-2,9.689615E-2,2.8572103E-2,6.685458E-2,6.413492E-2,4.8504885E-2,3.0834166E-2,5.5555593E-2,-9.8608015E-3,-7.6499574E-2,3.660388E-2,1.933506E-2,4.4874316E-3,2.2500703E-2,-3.212889E-3,-2.6568089E-2,2.0682445E-2,2.7862964E-3,-2.2038473E-2,-7.0708552E-3,-1.6141083E-3,-1.2936898E-2,-1.8909745E-2,-3.141349E-2,-2.0627154E-2,-3.5271406E-2,-4.336517E-2,-5.559228E-2,-4.069778E-2,-5.701048E-2,-6.852893E-2,-8.6195715E-2],"split_indices":[1,0,0,1,1,1,0,0,0,1,0,0,0,1,1,1,1,1,2,0,1,2,0,1,2,1,1,1,0,1,1,0,0,0,0,0,0,0,0,0,0,0,0,0,0,0,0,0,0,0,0,0,0,0,0,0,0,0,0,0,0,0,0],"split_type":[0,0,0,0,0,0,0,0,0,0,0,0,0,0,0,0,0,0,0,0,0,0,0,0,0,0,0,0,0,0,0,0,0,0,0,0,0,0,0,0,0,0,0,0,0,0,0,0,0,0,0,0,0,0,0,0,0,0,0,0,0,0,0],"sum_hessian":[4.38E3,2.137E3,2.243E3,1.196E3,9.41E2,8.05E2,1.438E3,4.81E2,7.15E2,5.15E2,4.26E2,4.74E2,3.31E2,9.01E2,5.37E2,1.16E2,3.65E2,3.22E2,3.93E2,6E0,5.09E2,1.18E2,3.08E2,3.13E2,1.61E2,5.1E1,2.8E2,4.48E2,4.53E2,2E2,3.37E2,1.6E1,1E2,4.6E1,3.19E2,1.61E2,1.61E2,3.47E2,4.6E1,2E0,4E0,2.3E2,2.79E2,3E1,8.8E1,2.62E2,4.6E1,1.35E2,1.78E2,5.5E1,1.06E2,3.2E1,1.9E1,7.7E1,2.03E2,1.52E2,2.96E2,1.84E2,2.69E2,8.8E1,1.12E2,2.27E2,1.1E2],"tree_param":{"num_deleted":"0","num_feature":"3","num_nodes":"63","size_leaf_vector":"1"}},{"base_weights":[-2.9462637E-4,2.9494417E-1,-3.5615602E-1,4.309597E-1,1.1155059E-2,-1.13943614E-1,-4.711538E-1,5.4247123E-1,3.0006212E-1,1.24296196E-1,-1.04961514E-1,-9.657946E-3,-2.1658505E-1,-4.0845326E-1,-6.4859366E-1,6.631367E-1,4.3319282E-1,4.4311076E-1,2.2721449E-1,1.5033895E-1,-1.3104434E-1,-1.6073954E-4,-1.856139E-1,1.42455E-1,-6.6414036E-2,-1.3558133E-1,-2.8018478E-1,-3.578668E-1,-5.2895015E-1,-5.540834E-1,-7.4208635E-1,1.708272E-2,6.930714E-2,5.6628E-2,3.836267E-2,5.308786E-3,4.803484E-2,1.5359205E-2,2.6301175E-2,2.1857781E-2,6.355838E-3,-6.609389E-2,-8.188068E-3,-9.796309E-3,5.6511285E-3,-1.4449226E-2,-2.502622E-2,-2.1145414E-3,2.1642761E-2,-1.957838E-2,-1.303416E-4,-7.625227E-3,-1.9721134E-2,-3.140296E-2,-2.1234551E-2,-2.759335E-2,-4.170339E-2,-4.8148494E-2,-6.290215E-2,-5.1214095E-2,-7.364514E-2,-6.7252874E-2,-8.163381E-2],"categories":[],"categories_nodes":[],"categories_segments":[],"categories_sizes":[],"default_left":[0,0,0,0,0,0,0,0,0,0,0,0,0,0,0,0,0,0,0,0,0,0,0,0,0,0,0,0,0,0,0,0,0,0,0,0,0,0,0,0,0,0,0,0,0,0,0,0,0,0,0,0,0,0,0,0,0,0,0,0,0,0,0],"id":7,"left_children":[1,3,5,7,9,11,13,15,17,19,21,23,25,27,29,31,33,35,37,39,41,43,45,47,49,51,53,55,57,59,61,-1,-1,-1,-1,-1,-1,-1,-1,-1,-1,-1,-1,-1,-1,-1,-1,-1,-1,-1,-1,-1,-1,-1,-1,-1,-1,-1,-1,-1,-1,-1,-1],"loss_changes":[4.603908E2,9.244154E1,5.5291992E1,2.3469086E1,1.0220931E1,6.859193E0,1.4721222E1,1.1224243E1,7.6836243E0,2.63971E0,3.2457047E0,2.763495E0,1.6260481E0,5.8940277E0,2.681427E0,5.968048E0,2.8237991E0,3.6199036E0,1.2694378E0,2.1061144E0,9.0978944E-1,9.367023E-1,5.4072094E-1,1.057446E0,1.9623846E0,5.114913E-1,3.4659863E-1,3.3074493E0,1.0888596E0,9.843483E-1,3.4449768E-1,0E0,0E0,0E0,0E0,0E0,0E0,0E0,0E0,0E0,0E0,0E0,0E0,0E0,0E0,0E0,0E0,0E0,0E0,0E0,0E0,0E0,0E0,0E0,0E0,0E0,0E0,0E0,0E0,0E0,0E0,0E0,0E0],"parents":[2147483647,0,0,1,1,2,2,3,3,4,4,5,5,6,6,7,7,8,8,9,9,10,10,11,11,12,12,13,13,14,14,15,15,16,16,17,17,18,18,19,19,20,20,21,21,22,22,23,23,24,24,25,25,26,26,27,27,28,28,29,29,30,30],"right_children":[2,4,6,8,10,12,14,16,18,20,22,24,26,28,30,32,34,36,38,40,42,44,46,48,50,52,54,56,58,60,62,-1,-1,-1,-1,-1,-1,-1,-1,-1,-1,-1,-1,-1,-1,-1,-1,-1,-1,-1,-1,-1,-1,-1,-1,-1,-1,-1,-1,-1,-1,-1,-1],"split_conditions":[5.4001E0,1.7399E1,2.15E1,1.21E1,4.1901E0,6.8402E0,3.0199E1,3.0201E0,2.91E0,2.5199E1,2.22E1,1.4099E1,1.8E1,7.92E0,7.4101E0,1.1299E0,7.0976E0,1.47E0,8.1001E0,3.61E0,1.2701E0,8E0,2.6198E1,7.9002E0,9.1001E0,7.4301E0,1.07E1,2.5602E1,2.71E1,3.4301E1,3.2001E1,1.708272E-2,6.930714E-2,5.6628E-2,3.836267E-2,5.308786E-3,4.803484E-2,1.5359205E-2,2.6301175E-2,2.1857781E-2,6.355838E-3,-6.609389E-2,-8.188068E-3,-9.796309E-3,5.6511285E-3,-1.4449226E-2,-2.502622E-2,-2.1145414E-3,2.1642761E-2,-1.957838E-2,-1.303416E-4,-7.625227E-3,-1.9721134E-2,-3.140296E-2,-2.1234551E-2,-2.759335E-2,-4.170339E-2,-4.8148494E-2,-6.290215E-2,-5.1214095E-2,-7.364514E-2,-6.7252874E-2,-8.163381E-2],"split_indices":[1,0,0,0,1,1,0,1,1,0,0,0,0,1,1,1,0,1,2,1,1,2,0,2,2,1,2,0,0,0,0,0,0,0,0,0,0,0,0,0,0,0,0,0,0,0,0,0,0,0,0,0,0,0,0,0,0,0,0,0,0,0,0],"split_type":[0,0,0,0,0,0,0,0,0,0,0,0,0,0,0,0,0,0,0,0,0,0,0,0,0,0,0,0,0,0,0,0,0,0,0,0,0,0,0,0,0,0,0,0,0,0,0,0,0,0,0,0,0,0,0,0,0,0,0,0,0,0,0],"sum_hessian":[4.38E3,2.394E3,1.986E3,1.618E3,7.76E2,6.4E2,1.346E3,8.72E2,7.46E2,3.93E2,3.83E2,3.18E2,3.22E2,9.97E2,3.49E2,4.12E2,4.6E2,2.5E2,4.96E2,3.57E2,3.6E1,1.67E2,2.16E2,8.6E1,2.32E2,1.43E2,1.79E2,7.05E2,2.92E2,1.77E2,1.72E2,2.4E1,3.88E2,1.22E2,3.38E2,2.2E1,2.28E2,1.64E2,3.32E2,1.99E2,1.58E2,2E0,3.4E1,6.1E1,1.06E2,1.34E2,8.2E1,2.7E1,5.9E1,7.7E1,1.55E2,7.4E1,6.9E1,1.17E2,6.2E1,2.98E2,4.07E2,2.02E2,9E1,1.47E2,3E1,9.4E1,7.8E1],"tree_param":{"num_deleted":"0","num_feature":"3","num_nodes":"63","size_leaf_vector":"1"}},{"base_weights":[-3.44271E-4,3.313994E-1,-2.5809795E-1,4.9539465E-1,1.8441615E-1,-1.8977577E-2,-3.843133E-1,6.058796E-1,4.1168118E-1,2.4481055E-1,2.9498465E-2,7.45114E-2,-1.7109048E-1,-2.503586E-1,-4.7230363E-1,3.0519763E-1,6.567367E-1,3.7374157E-1,5.6091607E-1,3.3944276E-1,1.5333605E-1,7.8823306E-2,-1.3216779E-1,1.8775211E-1,6.2050256E-3,-3.6621816E-2,-2.0456679E-1,-1.8427822E-1,-3.3406308E-1,-4.1486397E-1,-6.509232E-1,-2.9064473E-3,3.9302826E-2,8.2467034E-2,5.962869E-2,5.3869236E-2,3.239153E-2,5.012058E-2,6.58121E-2,2.950116E-3,3.6069773E-2,1.9813854E-2,9.003173E-3,1.439548E-2,6.738118E-4,-6.168766E-2,-1.0776326E-2,1.1522635E-2,3.1407915E-2,-1.4749415E-2,5.259182E-3,5.0396873E-3,-7.0303762E-3,-1.40640065E-2,-2.381567E-2,-1.3170338E-2,-2.4456456E-2,-2.951541E-2,-4.052281E-2,-3.4164883E-2,-4.6411887E-2,-6.175493E-2,-8.239872E-2],"categories":[],"categories_nodes":[],"categories_segments":[],"categories_sizes":[],"default_left":[0,0,0,0,0,0,0,0,0,0,0,0,0,0,0,0,0,0,0,0,0,0,0,0,0,0,0,0,0,0,0,0,0,0,0,0,0,0,0,0,0,0,0,0,0,0,0,0,0,0,0,0,0,0,0,0,0,0,0,0,0,0,0],"id":8,"left_children":[1,3,5,7,9,11,13,15,17,19,21,23,25,27,29,31,33,35,37,39,41,43,45,47,49,51,53,55,57,59,61,-1,-1,-1,-1,-1,-1,-1,-1,-1,-1,-1,-1,-1,-1,-1,-1,-1,-1,-1,-1,-1,-1,-1,-1,-1,-1,-1,-1,-1,-1,-1,-1],"loss_changes":[3.7469678E2,4.6092957E1,7.441821E1,8.120972E0,9.461216E0,1.2143159E1,1.8905533E1,5.732788E0,2.723236E0,6.249836E0,2.2830544E0,4.090683E0,1.4555006E0,3.4894829E0,9.712799E0,1.7142134E0,2.8684235E0,3.2445679E0,2.6797104E-1,2.3412018E0,1.0372248E0,1.0272385E0,7.260723E-1,1.7870412E0,2.3676586E0,1.9698635E-1,5.2480125E-1,1.1119957E0,6.6124153E-1,2.506401E0,8.4845734E-1,0E0,0E0,0E0,0E0,0E0,0E0,0E0,0E0,0E0,0E0,0E0,0E0,0E0,0E0,0E0,0E0,0E0,0E0,0E0,0E0,0E0,0E0,0E0,0E0,0E0,0E0,0E0,0E0,0E0,0E0,0E0,0E0],"parents":[2147483647,0,0,1,1,2,2,3,3,4,4,5,5,6,6,7,7,8,8,9,9,10,10,11,11,12,12,13,13,14,14,15,15,16,16,17,17,18,18,19,19,20,20,21,21,22,22,23,23,24,24,25,25,26,26,27,27,28,28,29,29,30,30],"right_children":[2,4,6,8,10,12,14,16,18,20,22,24,26,28,30,32,34,36,38,40,42,44,46,48,50,52,54,56,58,60,62,-1,-1,-1,-1,-1,-1,-1,-1,-1,-1,-1,-1,-1,-1,-1,-1,-1,-1,-1,-1,-1,-1,-1,-1,-1,-1,-1,-1,-1,-1,-1,-1],"split_conditions":[4.4499E0,1.2901E1,2.0801E1,2.8801E0,1.9601E1,6.6301E0,6.73E0,1.47E0,1.38E1,3.2101E0,2.5199E1,1.4099E1,1.48E1,2.6198E1,3.07E1,1.0299E0,7.0976E0,6.4008E0,2.02E1,1.47E0,1.71E1,3.6298E0,1.2701E0,1.16E1,8.0002E0,7.0501E0,7.34E0,5.6601E0,6.3099E0,2.5302E1,3.5E1,-2.9064473E-3,3.9302826E-2,8.2467034E-2,5.962869E-2,5.3869236E-2,3.239153E-2,5.012058E-2,6.58121E-2,2.950116E-3,3.6069773E-2,1.9813854E-2,9.003173E-3,1.439548E-2,6.738118E-4,-6.168766E-2,-1.0776326E-2,1.1522635E-2,3.1407915E-2,-1.4749415E-2,5.259182E-3,5.0396873E-3,-7.0303762E-3,-1.40640065E-2,-2.381567E-2,-1.3170338E-2,-2.4456456E-2,-2.951541E-2,-4.052281E-2,-3.4164883E-2,-4.6411887E-2,-6.175493E-2,-8.239872E-2],"split_indices":[1,0,0,1,0,1,1,1,2,1,0,0,0,0,0,1,0,0,2,1,0,1,1,2,2,1,1,1,1,0,0,0,0,0,0,0,0,0,0,0,0,0,0,0,0,0,0,0,0,0,0,0,0,0,0,0,0,0,0,0,0,0,0],"split_type":[0,0,0,0,0,0,0,0,0,0,0,0,0,0,0,0,0,0,0,0,0,0,0,0,0,0,0,0,0,0,0,0,0,0,0,0,0,0,0,0,0,0,0,0,0,0,0,0,0,0,0,0,0,0,0,0,0,0,0,0,0,0,0],"sum_hessian":[4.38E3,1.915E3,2.465E3,9.04E2,1.011E3,8.52E2,1.613E3,3.87E2,5.17E2,7.27E2,2.84E2,5.28E2,3.24E2,6.41E2,9.72E2,5.7E1,3.3E2,4.15E2,1.02E2,3.56E2,3.71E2,2.18E2,6.6E1,1.98E2,3.3E2,6.5E1,2.59E2,3.6E2,2.81E2,7.38E2,2.34E2,1.2E1,4.5E1,8.4E1,2.46E2,9.4E1,3.21E2,6.7E1,3.5E1,2.3E1,3.33E2,2.16E2,1.55E2,1.14E2,1.04E2,2E0,6.4E1,1.27E2,7.1E1,7.6E1,2.54E2,1.8E1,4.7E1,9.1E1,1.68E2,1.94E2,1.66E2,1.85E2,9.6E1,3E2,4.38E2,2E2,3.4E1],"tree_param":{"num_deleted":"0","num_feature":"3","num_nodes":"63","size_leaf_vector":"1"}},{"base_weights":[-2.978333E-4,2.3983127E-1,-2.8973362E-1,3.5014984E-1,9.656747E-3,-1.3890383E-1,-4.1172704E-1,4.9252668E-1,2.7824038E-1,1.143357E-1,-7.333684E-2,-3.394254E-2,-2.2608577E-1,-3.6476988E-1,-5.55793E-1,6.358639E-1,4.1646716E-1,3.9330536E-1,2.0618755E-1,-3.528114E-1,1.2650828E-1,4.961687E-3,-1.4216612E-1,2.8232817E-2,-1.3653354E-1,-1.8244584E-1,-3.2077843E-1,-2.9171774E-1,-4.372951E-1,-5.058836E-1,-6.9240294E-2,2.9892923E-4,6.605965E-2,4.8151147E-2,3.4290135E-2,1.1204972E-2,4.2644914E-2,1.3560449E-2,2.4521135E-2,-2.9348375E-3,-5.096515E-2,2.152127E-2,7.4932813E-3,-2.0908808E-2,2.3056052E-3,-5.5130958E-3,-1.6905136E-2,-4.17868E-3,7.900742E-3,-4.4837613E-3,-1.7313706E-2,-1.9347524E-2,-8.546628E-3,-2.7118105E-2,-3.5770036E-2,-2.3618797E-2,-3.282351E-2,-3.996801E-2,-5.091085E-2,-4.050316E-2,-5.4041084E-2],"categories":[],"categories_nodes":[],"categories_segments":[],"categories_sizes":[],"default_left":[0,0,0,0,0,0,0,0,0,0,0,0,0,0,0,0,0,0,0,0,0,0,0,0,0,0,0,0,0,0,0,0,0,0,0,0,0,0,0,0,0,0,0,0,0,0,0,0,0,0,0,0,0,0,0,0,0,0,0,0,0],"id":9,"left_children":[1,3,5,7,9,11,13,15,17,19,21,23,25,27,29,31,33,35,37,39,41,43,45,47,49,51,53,55,57,59,-1,-1,-1,-1,-1,-1,-1,-1,-1,-1,-1,-1,-1,-1,-1,-1,-1,-1,-1,-1,-1,-1,-1,-1,-1,-1,-1,-1,-1,-1,-1],"loss_changes":[3.0455756E2,6.081172E1,3.650409E1,1.6438675E1,6.758714E0,8.136475E0,7.2251587E0,5.64415E0,8.8563385E0,2.000751E0,2.3396316E0,2.5872006E0,1.9498119E0,4.2751694E0,1.4769821E0,2.9094162E0,1.5431442E0,3.8114777E0,1.798439E0,4.4163024E-1,1.5210648E0,7.9493195E-1,5.312114E-1,9.027716E-1,5.0576496E-1,3.417883E-1,1.8134594E-1,7.680664E-1,9.175339E-1,4.7754288E-1,0E0,0E0,0E0,0E0,0E0,0E0,0E0,0E0,0E0,0E0,0E0,0E0,0E0,0E0,0E0,0E0,0E0,0E0,0E0,0E0,0E0,0E0,0E0,0E0,0E0,0E0,0E0,0E0,0E0,0E0,0E0],"parents":[2147483647,0,0,1,1,2,2,3,3,4,4,5,5,6,6,7,7,8,8,9,9,10,10,11,11,12,12,13,13,14,14,15,15,16,16,17,17,18,18,19,19,20,20,21,21,22,22,23,23,24,24,25,25,26,26,27,27,28,28,29,29],"right_children":[2,4,6,8,10,12,14,16,18,20,22,24,26,28,30,32,34,36,38,40,42,44,46,48,50,52,54,56,58,60,-1,-1,-1,-1,-1,-1,-1,-1,-1,-1,-1,-1,-1,-1,-1,-1,-1,-1,-1,-1,-1,-1,-1,-1,-1,-1,-1,-1,-1,-1,-1],"split_conditions":[5.4001E0,1.7399E1,2.41E1,9.7006E0,4.0201E0,1.8601E1,3.0998E1,2.7999E0,2.94E0,1.2701E0,2.22E1,7.02E0,7.8902E0,7.3799E0,8.0002E0,1.0299E0,3.55E0,1.47E0,8.1001E0,1.84E1,3.1399E0,5.6E0,4.39E0,9.9997E0,1.47E1,1.53E1,8.2401E0,6.3301E0,8.1899E0,6.6601E0,-6.9240294E-2,2.9892923E-4,6.605965E-2,4.8151147E-2,3.4290135E-2,1.1204972E-2,4.2644914E-2,1.3560449E-2,2.4521135E-2,-2.9348375E-3,-5.096515E-2,2.152127E-2,7.4932813E-3,-2.0908808E-2,2.3056052E-3,-5.5130958E-3,-1.6905136E-2,-4.17868E-3,7.900742E-3,-4.4837613E-3,-1.7313706E-2,-1.9347524E-2,-8.546628E-3,-2.7118105E-2,-3.5770036E-2,-2.3618797E-2,-3.282351E-2,-3.996801E-2,-5.091085E-2,-4.050316E-2,-5.4041084E-2],"split_indices":[1,0,0,0,1,0,0,1,1,1,0,1,1,1,1,1,1,1,2,0,1,2,1,2,0,2,1,1,1,1,0,0,0,0,0,0,0,0,0,0,0,0,0,0,0,0,0,0,0,0,0,0,0,0,0,0,0,0,0,0,0],"split_type":[0,0,0,0,0,0,0,0,0,0,0,0,0,0,0,0,0,0,0,0,0,0,0,0,0,0,0,0,0,0,0,0,0,0,0,0,0,0,0,0,0,0,0,0,0,0,0,0,0,0,0,0,0,0,0,0,0,0,0,0,0],"sum_hessian":[4.38E3,2.394E3,1.986E3,1.618E3,7.76E2,8.89E2,1.097E3,5.41E2,1.077E3,3.43E2,4.33E2,4.04E2,4.85E2,8.3E2,2.67E2,1.85E2,3.56E2,4.13E2,6.64E2,8E0,3.35E2,2.03E2,2.3E2,2.52E2,1.52E2,3.34E2,1.51E2,4.16E2,4.14E2,1.99E2,6.8E1,7E0,1.78E2,1.86E2,1.7E2,4.4E1,3.69E2,2.38E2,4.26E2,3E0,5E0,1.22E2,2.13E2,1.5E1,1.88E2,5.5E1,1.75E2,1.06E2,1.46E2,4.4E1,1.08E2,2.99E2,3.5E1,6.8E1,8.3E1,1.68E2,2.48E2,2.76E2,1.38E2,5.4E1,1.45E2],"tree_param":{"num_deleted":"0","num_feature":"3","num_nodes":"61","size_leaf_vector":"1"}},{"base_weights":[-3.239371E-4,2.6944324E-1,-2.0992392E-1,4.0539545E-1,1.4759916E-1,-1.6170327E-2,-3.1219277E-1,5.0448596E-1,3.4170368E-1,1.9722308E-1,2.0322606E-2,5.923915E-2,-1.38864E-1,-2.0335473E-1,-3.8368487E-1,2.4291128E-1,5.5420405E-1,3.0892974E-1,4.7418746E-1,2.7495527E-1,1.2452144E-1,6.2927596E-2,-1.192418E-1,1.58238E-1,3.742033E-3,-2.9338606E-2,-1.661325E-1,-1.4666866E-1,-2.707981E-1,-3.0277944E-1,-4.6962667E-1,4.1318696E-2,1.0139373E-2,8.234166E-2,5.2175827E-2,4.5161907E-2,2.654343E-2,4.2039175E-2,5.5513036E-2,-2.4712332E-2,2.847512E-2,1.037171E-2,2.4742685E-2,1.1621921E-2,3.9612726E-4,-5.417754E-2,-9.790576E-3,9.467999E-3,2.7621543E-2,-1.316073E-2,4.3869433E-3,5.4546157E-3,-6.1931773E-3,-2.0299943E-2,-1.178829E-2,-1.0407095E-2,-1.951613E-2,-2.1763967E-2,-3.1329352E-2,-2.5601376E-2,-3.6864128E-2,-4.2573407E-2,-5.721383E-2],"categories":[],"categories_nodes":[],"categories_segments":[],"categories_sizes":[],"default_left":[0,0,0,0,0,0,0,0,0,0,0,0,0,0,0,0,0,0,0,0,0,0,0,0,0,0,0,0,0,0,0,0,0,0,0,0,0,0,0,0,0,0,0,0,0,0,0,0,0,0,0,0,0,0,0,0,0,0,0,0,0,0,0],"id":10,"left_children":[1,3,5,7,9,11,13,15,17,19,21,23,25,27,29,31,33,35,37,39,41,43,45,47,49,51,53,55,57,59,61,-1,-1,-1,-1,-1,-1,-1,-1,-1,-1,-1,-1,-1,-1,-1,-1,-1,-1,-1,-1,-1,-1,-1,-1,-1,-1,-1,-1,-1,-1,-1,-1],"loss_changes":[2.4777231E2,3.1678665E1,4.8858635E1,5.539276E0,6.387747E0,7.9004083E0,1.2480606E1,4.443138E0,2.2589874E0,4.0798798E0,1.7021536E0,2.905813E0,9.657688E-1,2.414713E0,6.6232147E0,1.355731E0,2.1471481E0,2.654354E0,2.3690224E-1,1.865469E0,9.4087076E-1,6.877276E-1,5.509749E-1,1.3985462E0,1.8523872E0,1.8382673E-1,4.3856192E-1,7.047415E-1,5.914402E-1,1.4579773E0,1.8711853E0,0E0,0E0,0E0,0E0,0E0,0E0,0E0,0E0,0E0,0E0,0E0,0E0,0E0,0E0,0E0,0E0,0E0,0E0,0E0,0E0,0E0,0E0,0E0,0E0,0E0,0E0,0E0,0E0,0E0,0E0,0E0,0E0],"parents":[2147483647,0,0,1,1,2,2,3,3,4,4,5,5,6,6,7,7,8,8,9,9,10,10,11,11,12,12,13,13,14,14,15,15,16,16,17,17,18,18,19,19,20,20,21,21,22,22,23,23,24,24,25,25,26,26,27,27,28,28,29,29,30,30],"right_children":[2,4,6,8,10,12,14,16,18,20,22,24,26,28,30,32,34,36,38,40,42,44,46,48,50,52,54,56,58,60,62,-1,-1,-1,-1,-1,-1,-1,-1,-1,-1,-1,-1,-1,-1,-1,-1,-1,-1,-1,-1,-1,-1,-1,-1,-1,-1,-1,-1,-1,-1,-1,-1],"split_conditions":[4.4499E0,1.2901E1,2.0801E1,2.7999E0,1.9601E1,6.6301E0,6.73E0,1.47E0,1.4E1,3.19E0,2.5199E1,1.38E1,1.48E1,2.6099E1,2.76E1,8.4009E0,5.1009E0,6.4008E0,2.02E1,1.1299E0,1.62E1,3.6298E0,1.2701E0,1.16E1,8.0002E0,1.1301E1,1.02E1,5.6601E0,5.9802E0,8.0002E0,3.2001E1,4.1318696E-2,1.0139373E-2,8.234166E-2,5.2175827E-2,4.5161907E-2,2.654343E-2,4.2039175E-2,5.5513036E-2,-2.4712332E-2,2.847512E-2,1.037171E-2,2.4742685E-2,1.1621921E-2,3.9612726E-4,-5.417754E-2,-9.790576E-3,9.467999E-3,2.7621543E-2,-1.316073E-2,4.3869433E-3,5.4546157E-3,-6.1931773E-3,-2.0299943E-2,-1.178829E-2,-1.0407095E-2,-1.951613E-2,-2.1763967E-2,-3.1329352E-2,-2.5601376E-2,-3.6864128E-2,-4.2573407E-2,-5.721383E-2],"split_indices":[1,0,0,1,0,1,1,1,2,1,0,0,0,0,0,0,0,0,2,1,2,1,1,2,2,0,2,1,1,1,0,0,0,0,0,0,0,0,0,0,0,0,0,0,0,0,0,0,0,0,0,0,0,0,0,0,0,0,0,0,0,0,0],"split_type":[0,0,0,0,0,0,0,0,0,0,0,0,0,0,0,0,0,0,0,0,0,0,0,0,0,0,0,0,0,0,0,0,0,0,0,0,0,0,0,0,0,0,0,0,0,0,0,0,0,0,0,0,0,0,0,0,0,0,0,0,0,0,0],"sum_hessian":[4.38E3,1.915E3,2.465E3,9.04E2,1.011E3,8.52E2,1.613E3,3.51E2,5.53E2,7.27E2,2.84E2,5.28E2,3.24E2,6.41E2,9.72E2,5.7E1,2.94E2,4.46E2,1.07E2,3.5E2,3.77E2,2.18E2,6.6E1,1.89E2,3.39E2,6.5E1,2.59E2,3.5E2,2.91E2,5.03E2,4.69E2,2.5E1,3.2E1,2.9E1,2.65E2,1.02E2,3.44E2,6.8E1,3.9E1,6E0,3.44E2,3.24E2,5.3E1,1.14E2,1.04E2,2E0,6.4E1,1.24E2,6.5E1,7.7E1,2.62E2,1.8E1,4.7E1,1.45E2,1.14E2,1.88E2,1.62E2,1.32E2,1.59E2,2.97E2,2.06E2,3.32E2,1.37E2],"tree_param":{"num_deleted":"0","num_feature":"3","num_nodes":"63","size_leaf_vector":"1"}},{"base_weights":[-2.7046126E-4,1.9499148E-1,-2.3562633E-1,3.0172318E-1,3.541296E-2,-1.2199643E-1,-3.441033E-1,4.2027518E-1,2.4463935E-1,9.532312E-2,-8.157561E-2,-2.3845157E-2,-1.8605468E-1,-3.042957E-1,-4.540728E-1,2.0287542E-1,4.5636287E-1,3.2814634E-1,1.7482537E-1,1.766566E-1,3.0856732E-2,-8.69854E-3,-1.3369447E-1,2.898036E-2,-1.0863318E-1,-1.4792083E-1,-2.6964092E-1,-2.4362035E-1,-3.688342E-1,-4.0175375E-1,-5.530843E-1,3.7345726E-2,9.501489E-3,5.990177E-2,3.976997E-2,6.267793E-2,3.124707E-2,1.4382082E-2,2.6745412E-2,-4.544195E-2,1.8741013E-2,-3.993031E-3,6.61206E-3,-4.075512E-2,6.361324E-4,-1.001561E-2,-1.8849602E-2,-3.238966E-3,7.446037E-3,-3.7762579E-3,-1.3825379E-2,-1.6000174E-2,-4.221455E-3,-2.213907E-2,-3.0337546E-2,-2.6473507E-2,-1.6134044E-2,-3.3365108E-2,-4.2805914E-2,-3.6955964E-2,-5.1148575E-2,-5.2054692E-2,-6.8106845E-2],"categories":[],"categories_nodes":[],"categories_segments":[],"categories_sizes":[],"default_left":[0,0,0,0,0,0,0,0,0,0,0,0,0,0,0,0,0,0,0,0,0,0,0,0,0,0,0,0,0,0,0,0,0,0,0,0,0,0,0,0,0,0,0,0,0,0,0,0,0,0,0,0,0,0,0,0,0,0,0,0,0,0,0],"id":11,"left_children":[1,3,5,7,9,11,13,15,17,19,21,23,25,27,29,31,33,35,37,39,41,43,45,47,49,51,53,55,57,59,61,-1,-1,-1,-1,-1,-1,-1,-1,-1,-1,-1,-1,-1,-1,-1,-1,-1,-1,-1,-1,-1,-1,-1,-1,-1,-1,-1,-1,-1,-1,-1,-1],"loss_changes":[2.0137938E2,4.078115E1,2.4450249E1,9.608414E0,6.7432365E0,6.1069145E0,4.309494E0,3.5555649E0,5.6035156E0,3.3292718E0,1.2370732E0,1.7275523E0,1.834343E0,2.8431473E0,1.1660881E0,1.2156513E0,3.0924606E0,1.8685837E0,1.4865208E0,1.9921112E0,8.912964E-1,8.25506E-1,3.3033204E-1,6.666957E-1,3.0546546E-1,5.1171875E-1,2.3070431E-1,6.331043E-1,6.094017E-1,4.4333267E-1,2.025795E-2,0E0,0E0,0E0,0E0,0E0,0E0,0E0,0E0,0E0,0E0,0E0,0E0,0E0,0E0,0E0,0E0,0E0,0E0,0E0,0E0,0E0,0E0,0E0,0E0,0E0,0E0,0E0,0E0,0E0,0E0,0E0,0E0],"parents":[2147483647,0,0,1,1,2,2,3,3,4,4,5,5,6,6,7,7,8,8,9,9,10,10,11,11,12,12,13,13,14,14,15,15,16,16,17,17,18,18,19,19,20,20,21,21,22,22,23,23,24,24,25,25,26,26,27,27,28,28,29,29,30,30],"right_children":[2,4,6,8,10,12,14,16,18,20,22,24,26,28,30,32,34,36,38,40,42,44,46,48,50,52,54,56,58,60,62,-1,-1,-1,-1,-1,-1,-1,-1,-1,-1,-1,-1,-1,-1,-1,-1,-1,-1,-1,-1,-1,-1,-1,-1,-1,-1,-1,-1,-1,-1,-1,-1],"split_conditions":[5.4001E0,1.5799E1,2.47E1,2.78E0,2.22E1,1.8301E1,3.0998E1,1.47E0,1.06E1,3.6401E0,4.3299E0,7.02E0,7.8902E0,7.4E0,7.8099E0,8.4009E0,8.6983E0,3.1988E0,1.4E1,1.0299E0,8E0,1.8E0,2.6198E1,9.9997E0,1.47E1,1.53E1,8.2401E0,1.28E1,8.14E0,3.4301E1,3.5E1,3.7345726E-2,9.501489E-3,5.990177E-2,3.976997E-2,6.267793E-2,3.124707E-2,1.4382082E-2,2.6745412E-2,-4.544195E-2,1.8741013E-2,-3.993031E-3,6.61206E-3,-4.075512E-2,6.361324E-4,-1.001561E-2,-1.8849602E-2,-3.238966E-3,7.446037E-3,-3.7762579E-3,-1.3825379E-2,-1.6000174E-2,-4.221455E-3,-2.213907E-2,-3.0337546E-2,-2.6473507E-2,-1.6134044E-2,-3.3365108E-2,-4.2805914E-2,-3.6955964E-2,-5.1148575E-2,-5.2054692E-2,-6.8106845E-2],"split_indices":[1,0,0,1,0,0,0,1,0,1,1,1,1,1,1,0,0,0,2,1,2,1,0,2,0,2,1,2,1,0,0,0,0,0,0,0,0,0,0,0,0,0,0,0,0,0,0,0,0,0,0,0,0,0,0,0,0,0,0,0,0,0,0],"split_type":[0,0,0,0,0,0,0,0,0,0,0,0,0,0,0,0,0,0,0,0,0,0,0,0,0,0,0,0,0,0,0,0,0,0,0,0,0,0,0,0,0,0,0,0,0,0,0,0,0,0,0,0,0,0,0,0,0,0,0,0,0,0,0],"sum_hessian":[4.38E3,2.394E3,1.986E3,1.434E3,9.6E2,9.71E2,1.015E3,4.64E2,9.7E2,6.35E2,3.25E2,3.84E2,5.87E2,7.48E2,2.67E2,6.7E1,3.97E2,4.4E2,5.3E2,2.8E2,3.55E2,1.36E2,1.89E2,2.37E2,1.47E2,4.05E2,1.82E2,3.88E2,3.6E2,1.78E2,8.9E1,2.5E1,4.2E1,1.13E2,2.84E2,2E1,4.2E2,3.99E2,1.31E2,4E0,2.76E2,1.18E2,2.37E2,4E0,1.32E2,1.19E2,7E1,1.01E2,1.36E2,4.4E1,1.03E2,3.63E2,4.2E1,7.8E1,1.04E2,3.07E2,8.1E1,2.3E2,1.3E2,1.41E2,3.7E1,7.5E1,1.4E1],"tree_param":{"num_deleted":"0","num_feature":"3","num_nodes":"63","size_leaf_vector":"1"}},{"base_weights":[-2.9454517E-4,2.1939912E-1,-1.7098911E-1,3.3147782E-1,1.18953854E-1,-1.4080812E-2,-2.538093E-1,5.1779485E-1,3.0821034E-1,1.5971167E-1,1.4425284E-2,6.8718694E-2,-8.943947E-2,-1.723572E-1,-3.190514E-1,5.9341574E-1,3.5577208E-1,3.8617674E-1,2.593129E-1,2.457114E-1,1.1338821E-1,4.623788E-2,-1.2251819E-1,1.4057855E-1,2.4422266E-2,1.2094414E-2,-1.2382696E-1,-1.23857476E-1,-2.3225605E-1,-2.5308862E-1,-3.957673E-1,1.9000752E-2,6.0305335E-2,2.7085194E-2,4.5773998E-2,1.6153736E-2,4.2789135E-2,2.0909531E-2,3.5190843E-2,-5.91139E-4,2.7079035E-2,9.669663E-3,2.2508685E-2,9.374277E-3,-1.2561765E-4,-4.78487E-2,-9.96254E-3,8.356363E-3,2.427227E-2,-7.7402666E-3,5.510559E-3,5.6768614E-3,-5.0515295E-3,-1.6773036E-2,-7.5609456E-3,-1.7892411E-2,-9.99007E-3,-2.1512832E-2,-3.5415128E-2,-2.1583105E-2,-3.0027106E-2,-3.5472754E-2,-4.7048733E-2],"categories":[],"categories_nodes":[],"categories_segments":[],"categories_sizes":[],"default_left":[0,0,0,0,0,0,0,0,0,0,0,0,0,0,0,0,0,0,0,0,0,0,0,0,0,0,0,0,0,0,0,0,0,0,0,0,0,0,0,0,0,0,0,0,0,0,0,0,0,0,0,0,0,0,0,0,0,0,0,0,0,0,0],"id":12,"left_children":[1,3,5,7,9,11,13,15,17,19,21,23,25,27,29,31,33,35,37,39,41,43,45,47,49,51,53,55,57,59,61,-1,-1,-1,-1,-1,-1,-1,-1,-1,-1,-1,-1,-1,-1,-1,-1,-1,-1,-1,-1,-1,-1,-1,-1,-1,-1,-1,-1,-1,-1,-1,-1],"loss_changes":[1.6432727E2,2.1530464E1,3.2042534E1,3.7636948E0,4.3091764E0,5.3285756E0,8.52198E0,1.0018578E0,2.9764328E0,2.8723488E0,1.2472752E0,1.2921025E0,1.5621963E0,2.062889E0,4.4288864E0,1.4201736E-1,1.7043018E-1,2.826435E0,2.246727E0,1.6044512E0,8.6383724E-1,5.235561E-1,3.9238286E-1,8.823972E-1,7.947202E-1,3.217301E-1,6.9436646E-1,5.0981283E-1,5.9399223E-1,7.860184E-1,1.0965042E0,0E0,0E0,0E0,0E0,0E0,0E0,0E0,0E0,0E0,0E0,0E0,0E0,0E0,0E0,0E0,0E0,0E0,0E0,0E0,0E0,0E0,0E0,0E0,0E0,0E0,0E0,0E0,0E0,0E0,0E0,0E0,0E0],"parents":[2147483647,0,0,1,1,2,2,3,3,4,4,5,5,6,6,7,7,8,8,9,9,10,10,11,11,12,12,13,13,14,14,15,15,16,16,17,17,18,18,19,19,20,20,21,21,22,22,23,23,24,24,25,25,26,26,27,27,28,28,29,29,30,30],"right_children":[2,4,6,8,10,12,14,16,18,20,22,24,26,28,30,32,34,36,38,40,42,44,46,48,50,52,54,56,58,60,62,-1,-1,-1,-1,-1,-1,-1,-1,-1,-1,-1,-1,-1,-1,-1,-1,-1,-1,-1,-1,-1,-1,-1,-1,-1,-1,-1,-1,-1,-1,-1,-1],"split_conditions":[4.4499E0,1.2901E1,2.0801E1,5.1009E0,1.9601E1,6.0301E0,6.96E0,3.35E0,2.78E0,2.91E0,2.5799E1,1.38E1,1.48E1,2.64E1,2.77E1,4.5999E0,7.2E0,1.47E0,1.05E1,1.47E0,1.71E1,3.6298E0,1.2701E0,1.16E1,8E0,7.0501E0,1E1,8.1002E0,3.29E1,8.0002E0,8.0002E0,1.9000752E-2,6.0305335E-2,2.7085194E-2,4.5773998E-2,1.6153736E-2,4.2789135E-2,2.0909531E-2,3.5190843E-2,-5.91139E-4,2.7079035E-2,9.669663E-3,2.2508685E-2,9.374277E-3,-1.2561765E-4,-4.78487E-2,-9.96254E-3,8.356363E-3,2.427227E-2,-7.7402666E-3,5.510559E-3,5.6768614E-3,-5.0515295E-3,-1.6773036E-2,-7.5609456E-3,-1.7892411E-2,-9.99007E-3,-2.1512832E-2,-3.5415128E-2,-2.1583105E-2,-3.0027106E-2,-3.5472754E-2,-4.7048733E-2],"split_indices":[1,0,0,0,0,1,1,1,1,1,0,0,0,0,0,2,2,1,2,1,2,1,1,2,2,1,2,2,0,1,1,0,0,0,0,0,0,0,0,0,0,0,0,0,0,0,0,0,0,0,0,0,0,0,0,0,0,0,0,0,0,0,0],"split_type":[0,0,0,0,0,0,0,0,0,0,0,0,0,0,0,0,0,0,0,0,0,0,0,0,0,0,0,0,0,0,0,0,0,0,0,0,0,0,0,0,0,0,0,0,0,0,0,0,0,0,0,0,0,0,0,0,0,0,0,0,0,0,0],"sum_hessian":[4.38E3,1.915E3,2.465E3,9.04E2,1.011E3,8.52E2,1.613E3,9.8E1,8.06E2,7.27E2,2.84E2,4.06E2,4.46E2,7.19E2,8.94E2,6.5E1,3.3E1,3.08E2,4.98E2,2.53E2,4.74E2,2.31E2,5.3E1,1.54E2,2.52E2,1.13E2,3.33E2,3.99E2,3.2E2,4.83E2,4.11E2,2E0,6.3E1,2E1,1.3E1,4.9E1,2.59E2,3.25E2,1.73E2,2.3E1,2.3E2,4.14E2,6E1,1.15E2,1.16E2,2E0,5.1E1,1E2,5.4E1,5.8E1,1.94E2,6.6E1,4.7E1,1.73E2,1.6E2,1.19E2,2.8E2,2.83E2,3.7E1,2.73E2,2.1E2,2.69E2,1.42E2],"tree_param":{"num_deleted":"0","num_feature":"3","num_nodes":"63","size_leaf_vector":"1"}},{"base_weights":[-2.502138E-4,1.5862228E-1,-1.9174461E-1,2.4544814E-1,2.8805686E-2,-9.857275E-2,-2.8069273E-1,3.6956254E-1,2.073137E-1,7.693376E-2,-6.5176696E-2,2.4250327E-3,-1.4006013E-1,-2.4837899E-1,-3.7665612E-1,4.4286966E-1,2.3216325E-1,2.7707714E-1,1.528564E-1,1.5341225E-1,2.9883808E-2,3.2853577E-3,-1.01512365E-1,4.0511712E-2,-8.5733965E-2,-1.1069455E-1,-2.1388523E-1,-1.9074626E-1,-2.9209584E-1,-3.56996E-1,-5.8882978E-2,5.8499362E-2,4.1058473E-2,1.9805094E-2,4.7385912E-2,-2.3735372E-2,2.8738907E-2,1.3497985E-2,3.4965605E-2,-4.215788E-2,1.648473E-2,-1.94484E-3,5.5285967E-3,-3.556908E-2,1.957259E-3,-7.0981146E-3,-1.2999186E-2,-3.070761E-3,7.450241E-3,-3.28838E-3,-1.3543449E-2,-7.1358535E-4,-1.1783655E-2,-1.967626E-2,-2.981223E-2,-2.7409753E-2,-1.5861524E-2,-2.63986E-2,-3.4479875E-2,-3.1502187E-2,-4.3147188E-2],"categories":[],"categories_nodes":[],"categories_segments":[],"categories_sizes":[],"default_left":[0,0,0,0,0,0,0,0,0,0,0,0,0,0,0,0,0,0,0,0,0,0,0,0,0,0,0,0,0,0,0,0,0,0,0,0,0,0,0,0,0,0,0,0,0,0,0,0,0,0,0,0,0,0,0,0,0,0,0,0,0],"id":13,"left_children":[1,3,5,7,9,11,13,15,17,19,21,23,25,27,29,31,33,35,37,39,41,43,45,47,49,51,53,55,57,59,-1,-1,-1,-1,-1,-1,-1,-1,-1,-1,-1,-1,-1,-1,-1,-1,-1,-1,-1,-1,-1,-1,-1,-1,-1,-1,-1,-1,-1,-1,-1],"loss_changes":[1.3331442E2,2.6988018E1,1.6439514E1,6.715294E0,4.3518E0,4.073148E0,3.0570068E0,3.2814941E0,4.136688E0,2.2839406E0,8.1129587E-1,9.5705545E-1,1.4700184E0,1.8666763E0,8.4931564E-1,7.600937E-1,8.872833E-1,2.6198082E0,2.1340265E0,1.6606588E0,4.960674E-1,6.734886E-1,1.7597938E-1,4.8402587E-1,2.2144097E-1,3.652687E-1,2.2260189E-1,8.456745E-1,5.489731E-1,5.987015E-1,0E0,0E0,0E0,0E0,0E0,0E0,0E0,0E0,0E0,0E0,0E0,0E0,0E0,0E0,0E0,0E0,0E0,0E0,0E0,0E0,0E0,0E0,0E0,0E0,0E0,0E0,0E0,0E0,0E0,0E0,0E0],"parents":[2147483647,0,0,1,1,2,2,3,3,4,4,5,5,6,6,7,7,8,8,9,9,10,10,11,11,12,12,13,13,14,14,15,15,16,16,17,17,18,18,19,19,20,20,21,21,22,22,23,23,24,24,25,25,26,26,27,27,28,28,29,29],"right_children":[2,4,6,8,10,12,14,16,18,20,22,24,26,28,30,32,34,36,38,40,42,44,46,48,50,52,54,56,58,60,-1,-1,-1,-1,-1,-1,-1,-1,-1,-1,-1,-1,-1,-1,-1,-1,-1,-1,-1,-1,-1,-1,-1,-1,-1,-1,-1,-1,-1,-1,-1],"split_conditions":[5.4001E0,1.5799E1,2.47E1,8.097E0,2.22E1,1.6898E1,3.11E1,3.48E0,3.0201E0,3.48E0,4.2399E0,7.1E0,7.8902E0,7.1598E0,3.59E1,3.9996E0,1.49E1,1.0299E0,1.95E1,1.0299E0,8E0,1.8E0,1.12E1,8.6002E0,1.47E1,5.5499E0,8.5402E0,8.0999E0,8.0901E0,7.73E0,-5.8882978E-2,5.8499362E-2,4.1058473E-2,1.9805094E-2,4.7385912E-2,-2.3735372E-2,2.8738907E-2,1.3497985E-2,3.4965605E-2,-4.215788E-2,1.648473E-2,-1.94484E-3,5.5285967E-3,-3.556908E-2,1.957259E-3,-7.0981146E-3,-1.2999186E-2,-3.070761E-3,7.450241E-3,-3.28838E-3,-1.3543449E-2,-7.1358535E-4,-1.1783655E-2,-1.967626E-2,-2.981223E-2,-2.7409753E-2,-1.5861524E-2,-2.63986E-2,-3.4479875E-2,-3.1502187E-2,-4.3147188E-2],"split_indices":[1,0,0,0,0,0,0,1,1,1,1,1,1,1,0,0,2,1,2,1,2,1,2,2,0,1,1,2,1,1,0,0,0,0,0,0,0,0,0,0,0,0,0,0,0,0,0,0,0,0,0,0,0,0,0,0,0,0,0,0,0],"split_type":[0,0,0,0,0,0,0,0,0,0,0,0,0,0,0,0,0,0,0,0,0,0,0,0,0,0,0,0,0,0,0,0,0,0,0,0,0,0,0,0,0,0,0,0,0,0,0,0,0,0,0,0,0,0,0,0,0,0,0,0,0],"sum_hessian":[4.38E3,2.394E3,1.986E3,1.434E3,9.6E2,9.71E2,1.015E3,3.35E2,1.099E3,6.35E2,3.25E2,2.83E2,6.88E2,7.62E2,2.53E2,2.17E2,1.18E2,4.8E2,6.19E2,2.41E2,3.94E2,1.13E2,2.12E2,1.98E2,8.5E1,4.94E2,1.94E2,3.31E2,4.31E2,2.34E2,1.9E1,3.7E1,1.8E2,1.05E2,1.3E1,9E0,4.71E2,5.69E2,5E1,4E0,2.37E2,1.34E2,2.6E2,4E0,1.09E2,1.04E2,1.08E2,6.4E1,1.34E2,4.2E1,4.3E1,3.2E1,4.62E2,1.64E2,3E1,9E1,2.41E2,2.85E2,1.46E2,1.53E2,8.1E1],"tree_param":{"num_deleted":"0","num_feature":"3","num_nodes":"61","size_leaf_vector":"1"}},{"base_weights":[-2.6356438E-4,1.8291767E-1,-1.3599369E-1,2.853201E-1,1.0739838E-1,1.777502E-3,-2.0065792E-1,4.6263194E-1,2.6880783E-1,1.4640507E-1,3.1436224E-2,5.5444352E-2,-7.103886E-2,-1.4252627E-1,-2.6823676E-1,5.3169686E-1,3.4317907E-2,-8.462216E-2,2.7486634E-1,2.2165951E-1,1.0988387E-1,-3.763088E-2,3.8126066E-2,-2.4129499E-2,8.583001E-2,5.265211E-2,-8.995719E-2,-9.786238E-2,-2.014566E-1,-1.7699236E-1,-3.0578902E-1,3.030082E-2,5.7940003E-2,2.8003661E-2,-3.4753848E-2,3.4914326E-2,2.3409402E-2,-7.027092E-4,2.4820786E-2,7.83517E-3,1.6960679E-2,9.327848E-3,-8.7791757E-4,6.8043256E-3,-6.7846845E-3,1.5983196E-2,4.7109053E-3,9.081088E-3,-9.380055E-3,-1.2142966E-2,-5.023605E-3,-6.514944E-3,-1.2437209E-2,-1.8463524E-2,-2.6896572E-2,-2.7255861E-2,-1.6042182E-2,-2.7692601E-2,-3.8939055E-2],"categories":[],"categories_nodes":[],"categories_segments":[],"categories_sizes":[],"default_left":[0,0,0,0,0,0,0,0,0,0,0,0,0,0,0,0,0,0,0,0,0,0,0,0,0,0,0,0,0,0,0,0,0,0,0,0,0,0,0,0,0,0,0,0,0,0,0,0,0,0,0,0,0,0,0,0,0,0,0],"id":14,"left_children":[1,3,5,7,9,11,13,15,17,19,21,23,25,27,29,31,-1,33,35,37,39,-1,41,43,45,47,49,51,53,55,57,-1,-1,-1,-1,-1,-1,-1,-1,-1,-1,-1,-1,-1,-1,-1,-1,-1,-1,-1,-1,-1,-1,-1,-1,-1,-1,-1,-1],"loss_changes":[1.0895061E2,1.4392071E1,2.2423977E1,2.1915436E0,3.1806583E0,3.1497376E0,6.6912384E0,3.6203194E-1,1.577816E0,1.9269934E0,1.0127039E0,1.1239786E0,8.050256E-1,2.4096737E0,2.656189E0,2.6080322E-1,0E0,1.343695E0,2.080574E0,1.4042025E0,8.906431E-1,0E0,9.347033E-1,5.244281E-1,9.5525336E-1,2.655869E-1,3.651862E-1,4.489169E-1,4.0117073E-1,3.2525063E-1,1.2410278E0,0E0,0E0,0E0,0E0,0E0,0E0,0E0,0E0,0E0,0E0,0E0,0E0,0E0,0E0,0E0,0E0,0E0,0E0,0E0,0E0,0E0,0E0,0E0,0E0,0E0,0E0,0E0,0E0],"parents":[2147483647,0,0,1,1,2,2,3,3,4,4,5,5,6,6,7,7,8,8,9,9,10,10,11,11,12,12,13,13,14,14,15,15,17,17,18,18,19,19,20,20,22,22,23,23,24,24,25,25,26,26,27,27,28,28,29,29,30,30],"right_children":[2,4,6,8,10,12,14,16,18,20,22,24,26,28,30,32,-1,34,36,38,40,-1,42,44,46,48,50,52,54,56,58,-1,-1,-1,-1,-1,-1,-1,-1,-1,-1,-1,-1,-1,-1,-1,-1,-1,-1,-1,-1,-1,-1,-1,-1,-1,-1,-1,-1],"split_conditions":[4.37E0,1.22E1,2.0101E1,4.4007E0,1.8501E1,6.28E0,2.6701E1,3.1702E0,1.0299E0,2.7999E0,1.2701E0,8.1001E0,1.2799E1,7.29E0,6.6601E0,1.56E0,3.4317907E-2,1.26E1,2.6899E0,1.47E0,1.2E1,-3.763088E-2,3.61E0,1.08E1,1.37E1,7.4101E0,1.05E1,5.6601E0,8.42E0,7.3999E0,3.2001E1,3.030082E-2,5.7940003E-2,2.8003661E-2,-3.4753848E-2,3.4914326E-2,2.3409402E-2,-7.027092E-4,2.4820786E-2,7.83517E-3,1.6960679E-2,9.327848E-3,-8.7791757E-4,6.8043256E-3,-6.7846845E-3,1.5983196E-2,4.7109053E-3,9.081088E-3,-9.380055E-3,-1.2142966E-2,-5.023605E-3,-6.514944E-3,-1.2437209E-2,-1.8463524E-2,-2.6896572E-2,-2.7255861E-2,-1.6042182E-2,-2.7692601E-2,-3.8939055E-2],"split_indices":[1,0,0,0,0,1,0,1,1,1,1,2,0,1,1,1,0,2,1,1,2,0,1,0,0,1,2,1,1,2,0,0,0,0,0,0,0,0,0,0,0,0,0,0,0,0,0,0,0,0,0,0,0,0,0,0,0,0,0],"split_type":[0,0,0,0,0,0,0,0,0,0,0,0,0,0,0,0,0,0,0,0,0,0,0,0,0,0,0,0,0,0,0,0,0,0,0,0,0,0,0,0,0,0,0,0,0,0,0,0,0,0,0,0,0,0,0,0,0,0,0],"sum_hessian":[4.38E3,1.864E3,2.516E3,7.9E2,1.074E3,8.04E2,1.712E3,6.5E1,7.25E2,7.09E2,3.65E2,4.63E2,3.41E2,9.22E2,7.9E2,3.9E1,2.6E1,1.2E1,7.13E2,2.3E2,4.79E2,5E0,3.6E2,1.28E2,3.35E2,4.5E1,2.96E2,5.26E2,3.96E2,2.32E2,5.58E2,8E0,3.1E1,5E0,7E0,2.5E2,4.63E2,2.4E1,2.06E2,3.15E2,1.64E2,1.65E2,1.95E2,4.1E1,8.7E1,1.14E2,2.21E2,3.6E1,9E0,1.64E2,1.32E2,2.37E2,2.89E2,3.2E2,7.6E1,3.2E1,2E2,4.18E2,1.4E2],"tree_param":{"num_deleted":"0","num_feature":"3","num_nodes":"59","size_leaf_vector":"1"}},{"base_weights":[-2.3181534E-4,1.6473012E-1,-1.2246216E-1,2.5700867E-1,9.667703E-2,-3.175905E-2,-2.0300284E-1,3.5469002E-1,2.312868E-1,1.3538836E-1,3.3806663E-2,2.7599046E-2,-8.6079374E-2,-1.4040048E-1,-2.4789536E-1,4.1160542E-1,2.4162623E-1,-1.6817284E-1,2.3735665E-1,2.0471339E-1,1.0316546E-1,5.9139293E-2,-5.345049E-2,8.1847854E-2,-2.3771742E-2,-2.0379402E-2,-1.13822855E-1,-1.1381233E-1,-1.9103205E-1,-2.164408E-1,-3.277811E-1,2.5160713E-2,4.3298572E-2,1.5497408E-2,2.8786851E-2,2.5741464E-2,-4.9480025E-2,1.7634867E-2,2.8035033E-2,-3.3930995E-2,2.1423696E-2,7.587366E-3,1.5567488E-2,1.0134779E-2,1.2682049E-3,-3.065235E-2,-3.863234E-3,1.7377073E-2,5.8705485E-3,1.6106302E-3,-6.0607484E-3,-8.435697E-3,2.6518412E-4,-1.2501602E-2,-1.8759869E-3,-1.6581405E-2,-9.079681E-3,-8.9836335E-3,-2.1316035E-2,-1.8307073E-2,-2.5725067E-2,-3.043781E-2,-4.6900135E-2],"categories":[],"categories_nodes":[],"categories_segments":[],"categories_sizes":[],"default_left":[0,0,0,0,0,0,0,0,0,0,0,0,0,0,0,0,0,0,0,0,0,0,0,0,0,0,0,0,0,0,0,0,0,0,0,0,0,0,0,0,0,0,0,0,0,0,0,0,0,0,0,0,0,0,0,0,0,0,0,0,0,0,0],"id":15,"left_children":[1,3,5,7,9,11,13,15,17,19,21,23,25,27,29,31,33,35,37,39,41,43,45,47,49,51,53,55,57,59,61,-1,-1,-1,-1,-1,-1,-1,-1,-1,-1,-1,-1,-1,-1,-1,-1,-1,-1,-1,-1,-1,-1,-1,-1,-1,-1,-1,-1,-1,-1,-1,-1],"loss_changes":[8.835583E1,1.16870575E1,1.838097E1,1.9053917E0,2.6117535E0,3.8232317E0,3.7114296E0,9.49461E-1,1.565033E0,1.4643927E0,9.1165733E-1,1.5820634E0,1.1259599E0,7.307844E-1,1.8764496E0,2.570839E-1,1.8378663E-1,1.5174541E0,1.5767899E0,1.1607132E0,6.4167166E-1,6.242387E-1,3.369152E-1,5.769371E-1,4.299059E-1,2.7281806E-1,4.605193E-1,4.265809E-1,4.0855455E-1,7.1416664E-1,5.7442665E-1,0E0,0E0,0E0,0E0,0E0,0E0,0E0,0E0,0E0,0E0,0E0,0E0,0E0,0E0,0E0,0E0,0E0,0E0,0E0,0E0,0E0,0E0,0E0,0E0,0E0,0E0,0E0,0E0,0E0,0E0,0E0,0E0],"parents":[2147483647,0,0,1,1,2,2,3,3,4,4,5,5,6,6,7,7,8,8,9,9,10,10,11,11,12,12,13,13,14,14,15,15,16,16,17,17,18,18,19,19,20,20,21,21,22,22,23,23,24,24,25,25,26,26,27,27,28,28,29,29,30,30],"right_children":[2,4,6,8,10,12,14,16,18,20,22,24,26,28,30,32,34,36,38,40,42,44,46,48,50,52,54,56,58,60,62,-1,-1,-1,-1,-1,-1,-1,-1,-1,-1,-1,-1,-1,-1,-1,-1,-1,-1,-1,-1,-1,-1,-1,-1,-1,-1,-1,-1,-1,-1,-1,-1],"split_conditions":[4.37E0,1.22E1,2.3299E1,6.2005E0,1.8E1,1.78E1,6.96E0,3.35E0,1.0299E0,2.7599E0,2.3899E1,5.7897E0,5.5801E0,2.84E1,3.07E1,1.47E0,5.8998E0,1.26E1,8.8999E0,1.0299E0,1.2E1,3.6401E0,1.8E0,9.5E0,1.48E1,7.4999E0,1.53E1,8.2002E0,5.51E0,7.92E0,3.5E1,2.5160713E-2,4.3298572E-2,1.5497408E-2,2.8786851E-2,2.5741464E-2,-4.9480025E-2,1.7634867E-2,2.8035033E-2,-3.3930995E-2,2.1423696E-2,7.587366E-3,1.5567488E-2,1.0134779E-2,1.2682049E-3,-3.065235E-2,-3.863234E-3,1.7377073E-2,5.8705485E-3,1.6106302E-3,-6.0607484E-3,-8.435697E-3,2.6518412E-4,-1.2501602E-2,-1.8759869E-3,-1.6581405E-2,-9.079681E-3,-8.9836335E-3,-2.1316035E-2,-1.8307073E-2,-2.5725067E-2,-3.043781E-2,-4.6900135E-2],"split_indices":[1,0,0,0,0,0,1,1,1,1,0,1,1,0,0,1,2,2,2,1,2,1,1,0,0,2,2,2,1,1,0,0,0,0,0,0,0,0,0,0,0,0,0,0,0,0,0,0,0,0,0,0,0,0,0,0,0,0,0,0,0,0,0],"split_type":[0,0,0,0,0,0,0,0,0,0,0,0,0,0,0,0,0,0,0,0,0,0,0,0,0,0,0,0,0,0,0,0,0,0,0,0,0,0,0,0,0,0,0,0,0,0,0,0,0,0,0,0,0,0,0,0,0,0,0,0,0,0,0],"sum_hessian":[4.38E3,1.864E3,2.516E3,7.9E2,1.074E3,1.184E3,1.332E3,1.62E2,6.28E2,6.64E2,4.1E2,5.66E2,6.18E2,5.58E2,7.74E2,1.06E2,5.6E1,9E0,6.19E2,2.09E2,4.55E2,3.18E2,9.2E1,2.75E2,2.91E2,1.84E2,4.34E2,3.68E2,1.9E2,5.58E2,2.16E2,1.4E1,9.2E1,2.1E1,3.5E1,4E0,5E0,2.58E2,3.61E2,3E0,2.06E2,3.01E2,1.54E2,1.66E2,1.52E2,4E0,8.8E1,5.4E1,2.21E2,1.4E2,1.51E2,4.8E1,1.36E2,3.88E2,4.6E1,1.11E2,2.57E2,3.5E1,1.55E2,3.1E2,2.48E2,1.88E2,2.8E1],"tree_param":{"num_deleted":"0","num_feature":"3","num_nodes":"63","size_leaf_vector":"1"}},{"base_weights":[-2.222403E-4,1.4832258E-1,-1.1028814E-1,2.2332E-1,7.9928495E-2,-4.0904157E-2,-1.9693507E-1,3.0445483E-1,1.9602174E-1,1.0624154E-1,1.0278397E-2,-7.911624E-3,-1.3064738E-1,-1.1558848E-1,-2.2485681E-1,3.573806E-1,1.9807926E-1,1.6982447E-1,2.7176535E-1,1.69795E-1,7.767851E-2,-3.0939564E-1,1.874775E-2,9.223747E-2,-3.0690568E-2,-1.0881624E-1,-1.817864E-1,-1.0151835E-1,-1.8931122E-1,-2.0789877E-1,-3.2570547E-1,5.244428E-2,3.358519E-2,1.00847E-2,2.3582486E-2,2.2148483E-2,1.1952402E-2,9.511849E-3,3.001517E-2,-6.113901E-3,1.9077985E-2,6.8747797E-3,1.7665355E-2,-3.964472E-2,-1.4499522E-2,3.3996557E-3,-8.856202E-3,-1.4571283E-3,1.3048753E-2,-2.4139885E-4,-6.639374E-3,-1.2840367E-2,-7.7070403E-3,-1.0551217E-2,-1.9352196E-2,-1.1206246E-2,-1.9478799E-5,-1.0792802E-2,-2.0947991E-2,-1.9044584E-2,-2.8570477E-2,-2.965172E-2,-4.539022E-2],"categories":[],"categories_nodes":[],"categories_segments":[],"categories_sizes":[],"default_left":[0,0,0,0,0,0,0,0,0,0,0,0,0,0,0,0,0,0,0,0,0,0,0,0,0,0,0,0,0,0,0,0,0,0,0,0,0,0,0,0,0,0,0,0,0,0,0,0,0,0,0,0,0,0,0,0,0,0,0,0,0,0,0],"id":16,"left_children":[1,3,5,7,9,11,13,15,17,19,21,23,25,27,29,31,33,35,37,39,41,43,45,47,49,51,53,55,57,59,61,-1,-1,-1,-1,-1,-1,-1,-1,-1,-1,-1,-1,-1,-1,-1,-1,-1,-1,-1,-1,-1,-1,-1,-1,-1,-1,-1,-1,-1,-1,-1,-1],"loss_changes":[7.1644485E1,9.548443E0,1.512392E1,1.909317E0,1.7894621E0,4.141204E0,2.5156364E0,1.1790714E0,1.2793427E0,1.2738438E0,7.3409986E-1,2.3388724E0,3.9999342E-1,2.79521E-1,1.3551712E0,3.5256958E-1,2.5514483E-1,1.2701979E0,8.238907E-1,1.0729628E0,4.218588E-1,4.2696238E-2,4.3336976E-1,7.7813554E-1,8.428252E-1,1.5550828E-1,7.89392E-2,2.606597E-1,5.1253915E-2,9.1651726E-1,3.069458E-1,0E0,0E0,0E0,0E0,0E0,0E0,0E0,0E0,0E0,0E0,0E0,0E0,0E0,0E0,0E0,0E0,0E0,0E0,0E0,0E0,0E0,0E0,0E0,0E0,0E0,0E0,0E0,0E0,0E0,0E0,0E0,0E0],"parents":[2147483647,0,0,1,1,2,2,3,3,4,4,5,5,6,6,7,7,8,8,9,9,10,10,11,11,12,12,13,13,14,14,15,15,16,16,17,17,18,18,19,19,20,20,21,21,22,22,23,23,24,24,25,25,26,26,27,27,28,28,29,29,30,30],"right_children":[2,4,6,8,10,12,14,16,18,20,22,24,26,28,30,32,34,36,38,40,42,44,46,48,50,52,54,56,58,60,62,-1,-1,-1,-1,-1,-1,-1,-1,-1,-1,-1,-1,-1,-1,-1,-1,-1,-1,-1,-1,-1,-1,-1,-1,-1,-1,-1,-1,-1,-1,-1,-1],"split_conditions":[4.37E0,1.2901E1,2.47E1,7.0976E0,1.9601E1,7.4101E0,6.3301E0,3.3701E0,1.52E1,2.7999E0,1.3399E0,1.2801E1,8.2401E0,3.0998E1,3.2699E1,2.4996E0,5.7998E0,3.0201E0,1.6701E0,1.3399E0,1.97E1,1.0299E0,2.6701E1,7.3002E0,2.0101E1,1.05E1,1.99E1,1.81E1,5.51E0,8.2102E0,3.59E1,5.244428E-2,3.358519E-2,1.00847E-2,2.3582486E-2,2.2148483E-2,1.1952402E-2,9.511849E-3,3.001517E-2,-6.113901E-3,1.9077985E-2,6.8747797E-3,1.7665355E-2,-3.964472E-2,-1.4499522E-2,3.3996557E-3,-8.856202E-3,-1.4571283E-3,1.3048753E-2,-2.4139885E-4,-6.639374E-3,-1.2840367E-2,-7.7070403E-3,-1.0551217E-2,-1.9352196E-2,-1.1206246E-2,-1.9478799E-5,-1.0792802E-2,-2.0947991E-2,-1.9044584E-2,-2.8570477E-2,-2.965172E-2,-4.539022E-2],"split_indices":[1,0,0,0,0,1,1,1,2,1,1,0,1,0,0,0,2,1,1,1,2,1,0,2,0,2,0,2,1,1,0,0,0,0,0,0,0,0,0,0,0,0,0,0,0,0,0,0,0,0,0,0,0,0,0,0,0,0,0,0,0,0,0],"split_type":[0,0,0,0,0,0,0,0,0,0,0,0,0,0,0,0,0,0,0,0,0,0,0,0,0,0,0,0,0,0,0,0,0,0,0,0,0,0,0,0,0,0,0,0,0,0,0,0,0,0,0,0,0,0,0,0,0,0,0,0,0,0,0],"sum_hessian":[4.38E3,1.864E3,2.516E3,8.88E2,9.76E2,1.398E3,1.118E3,2.21E2,6.67E2,7.08E2,2.68E2,1.023E3,3.75E2,2.87E2,8.31E2,1.46E2,7.5E1,4.98E2,1.69E2,2.18E2,4.9E2,6E0,2.62E2,1.89E2,8.34E2,2.65E2,1.1E2,2.43E2,4.4E1,7.14E2,1.17E2,1.4E1,1.32E2,2.2E1,5.3E1,2.44E2,2.54E2,2.4E1,1.45E2,1.8E1,2E2,4.51E2,3.9E1,3E0,3E0,2.3E2,3.2E1,5E1,1.39E2,4.66E2,3.68E2,1.62E2,1.03E2,1.6E1,9.4E1,2.2E2,2.3E1,1E1,3.4E1,5.86E2,1.28E2,9.8E1,1.9E1],"tree_param":{"num_deleted":"0","num_feature":"3","num_nodes":"63","size_leaf_vector":"1"}},{"base_weights":[-2.0896178E-4,1.0056814E-1,-1.3296176E-1,1.901377E-1,4.0967423E-2,-7.9945296E-2,-2.0151593E-1,2.2501038E-1,1.19182095E-1,7.9166636E-2,-3.333512E-2,-2.4240611E-2,-1.1366672E-1,-1.7818025E-1,-2.7439445E-1,3.0096132E-1,1.8609837E-1,5.953303E-2,2.0277871E-1,1.2362756E-1,3.8991325E-2,-3.2434969E-3,-8.426673E-2,1.390557E-1,-3.1332873E-2,-9.347682E-2,-1.5666549E-1,-1.661831E-1,-2.655889E-1,-2.4359445E-1,-3.561869E-2,1.6898988E-2,3.2450635E-2,-2.0277617E-2,1.9371625E-2,9.787272E-3,-3.962027E-4,1.7620567E-2,3.7998818E-2,-3.245127E-2,1.2818041E-2,-1.1116028E-3,6.3291513E-3,3.343605E-3,-4.743772E-3,-3.593057E-2,-7.940372E-3,6.1836245E-4,1.670866E-2,-6.967757E-3,4.6877033E-4,-9.959976E-3,3.4552984E-4,-1.428327E-2,-2.1785669E-2,-1.9667245E-2,-1.207268E-2,-6.3539506E-3,-2.7622689E-2,-2.2003036E-2,-2.954697E-2],"categories":[],"categories_nodes":[],"categories_segments":[],"categories_sizes":[],"default_left":[0,0,0,0,0,0,0,0,0,0,0,0,0,0,0,0,0,0,0,0,0,0,0,0,0,0,0,0,0,0,0,0,0,0,0,0,0,0,0,0,0,0,0,0,0,0,0,0,0,0,0,0,0,0,0,0,0,0,0,0,0],"id":17,"left_children":[1,3,5,7,9,11,13,15,17,19,21,23,25,27,29,31,33,35,37,39,41,43,45,47,49,51,53,55,57,59,-1,-1,-1,-1,-1,-1,-1,-1,-1,-1,-1,-1,-1,-1,-1,-1,-1,-1,-1,-1,-1,-1,-1,-1,-1,-1,-1,-1,-1,-1,-1],"loss_changes":[5.862433E1,1.3290188E1,6.8567276E0,2.4352264E0,4.2515726E0,2.0034194E0,1.3524628E0,1.9122887E0,1.63346E0,1.7617626E0,7.7982765E-1,4.722455E-1,5.6266975E-1,6.133709E-1,4.120388E-1,6.411896E-1,1.3516216E0,4.7265744E-1,5.781765E-1,9.9850273E-1,6.350826E-1,5.219348E-1,2.242608E-1,6.2283695E-2,5.3623146E-1,2.703917E-1,1.4748335E-1,7.440634E-1,1.4150429E-1,1.1467934E-1,0E0,0E0,0E0,0E0,0E0,0E0,0E0,0E0,0E0,0E0,0E0,0E0,0E0,0E0,0E0,0E0,0E0,0E0,0E0,0E0,0E0,0E0,0E0,0E0,0E0,0E0,0E0,0E0,0E0,0E0,0E0],"parents":[2147483647,0,0,1,1,2,2,3,3,4,4,5,5,6,6,7,7,8,8,9,9,10,10,11,11,12,12,13,13,14,14,15,15,16,16,17,17,18,18,19,19,20,20,21,21,22,22,23,23,24,24,25,25,26,26,27,27,28,28,29,29],"right_children":[2,4,6,8,10,12,14,16,18,20,22,24,26,28,30,32,34,36,38,40,42,44,46,48,50,52,54,56,58,60,-1,-1,-1,-1,-1,-1,-1,-1,-1,-1,-1,-1,-1,-1,-1,-1,-1,-1,-1,-1,-1,-1,-1,-1,-1,-1,-1,-1,-1,-1,-1],"split_conditions":[5.61E0,1.2801E1,2.6099E1,3.5199E0,2.0601E1,1.8901E1,8.0002E0,8.097E0,9.4997E0,3.45E0,2.4999E1,9.3021E0,7.92E0,3.32E1,3.1401E1,5.7998E0,1.0299E0,1.03E1,2.07E1,1.0299E0,7.9999E0,4.5101E0,1.2701E0,7.0001E0,1.01E1,1.64E1,8.5402E0,1E1,5.9802E0,8.48E0,-3.561869E-2,1.6898988E-2,3.2450635E-2,-2.0277617E-2,1.9371625E-2,9.787272E-3,-3.962027E-4,1.7620567E-2,3.7998818E-2,-3.245127E-2,1.2818041E-2,-1.1116028E-3,6.3291513E-3,3.343605E-3,-4.743772E-3,-3.593057E-2,-7.940372E-3,6.1836245E-4,1.670866E-2,-6.967757E-3,4.6877033E-4,-9.959976E-3,3.4552984E-4,-1.428327E-2,-2.1785669E-2,-1.9667245E-2,-1.207268E-2,-6.3539506E-3,-2.7622689E-2,-2.2003036E-2,-2.954697E-2],"split_indices":[1,0,0,1,0,0,1,0,2,1,0,0,1,0,0,2,1,0,2,1,2,1,1,2,2,2,1,2,1,1,0,0,0,0,0,0,0,0,0,0,0,0,0,0,0,0,0,0,0,0,0,0,0,0,0,0,0,0,0,0,0],"split_type":[0,0,0,0,0,0,0,0,0,0,0,0,0,0,0,0,0,0,0,0,0,0,0,0,0,0,0,0,0,0,0,0,0,0,0,0,0,0,0,0,0,0,0,0,0,0,0,0,0,0,0,0,0,0,0,0,0,0,0,0,0],"sum_hessian":[4.38E3,2.49E3,1.89E3,9.94E2,1.496E3,1.067E3,8.23E2,6.65E2,3.29E2,9.88E2,5.08E2,4.03E2,6.64E2,6.26E2,1.97E2,2.23E2,4.42E2,1.93E2,1.36E2,4.68E2,5.2E2,3.2E2,1.88E2,1.6E1,3.87E2,4.54E2,2.1E2,5.53E2,7.3E1,1.46E2,5.1E1,3.5E1,1.88E2,8E0,4.34E2,1.2E2,7.3E1,1.2E2,1.6E1,4E0,4.64E2,1.7E2,3.5E2,1.75E2,1.45E2,2E0,1.86E2,3E0,1.3E1,1.87E2,2E2,4.27E2,2.7E1,1.74E2,3.6E1,3.29E2,2.24E2,4E0,6.9E1,1.04E2,4.2E1],"tree_param":{"num_deleted":"0","num_feature":"3","num_nodes":"61","size_leaf_vector":"1"}},{"base_weights":[-2.1836377E-4,9.053337E-2,-1.1976482E-1,1.3486512E-1,-8.168839E-3,-7.7325635E-2,-1.8993121E-1,1.9225536E-1,9.8026484E-2,4.1090447E-2,-3.949839E-2,-2.1790052E-2,-1.0610176E-1,-1.6062577E-1,-2.4150407E-1,2.250714E-1,1.21607974E-1,1.626142E-1,7.452714E-2,-2.3542786E-1,4.9443945E-2,-2.0164752E-2,-7.903343E-2,-2.6326824E-3,-7.848508E-2,-9.3793385E-2,-1.6241522E-1,-1.4730097E-1,-2.3871838E-1,-2.2099546E-1,-3.1080285E-1,-1.3758639E-2,2.3183946E-2,9.136573E-3,2.3072911E-2,-2.2513318E-4,1.8861894E-2,2.6485359E-3,9.712225E-3,-3.5045434E-2,-1.1950556E-2,9.886871E-3,2.5967085E-3,-2.6787429E-3,8.0183605E-3,-2.4121196E-3,-8.745907E-3,-2.3424195E-3,4.6834163E-3,-9.966765E-3,-4.710277E-3,-9.954797E-3,-3.5438088E-3,-1.433826E-2,-2.011296E-2,-2.2383671E-2,-1.3002129E-2,-2.5703523E-2,-7.6081394E-3,-2.0653563E-2,-2.9653197E-2,-2.5046358E-2,-3.482303E-2],"categories":[],"categories_nodes":[],"categories_segments":[],"categories_sizes":[],"default_left":[0,0,0,0,0,0,0,0,0,0,0,0,0,0,0,0,0,0,0,0,0,0,0,0,0,0,0,0,0,0,0,0,0,0,0,0,0,0,0,0,0,0,0,0,0,0,0,0,0,0,0,0,0,0,0,0,0,0,0,0,0,0,0],"id":18,"left_children":[1,3,5,7,9,11,13,15,17,19,21,23,25,27,29,31,33,35,37,39,41,43,45,47,49,51,53,55,57,59,61,-1,-1,-1,-1,-1,-1,-1,-1,-1,-1,-1,-1,-1,-1,-1,-1,-1,-1,-1,-1,-1,-1,-1,-1,-1,-1,-1,-1,-1,-1,-1,-1],"loss_changes":[4.754052E1,1.09008255E1,5.6163425E0,3.6154232E0,1.1945716E0,1.8834448E0,1.0373001E0,1.5282555E0,1.58002E0,7.069187E-1,3.5994667E-1,4.3858892E-1,5.233269E-1,4.4037533E-1,2.9514694E-1,1.153595E0,6.884339E-1,1.1965775E0,8.343549E-1,7.812595E-2,3.3741182E-1,2.1414717E-1,6.960434E-2,3.1272966E-1,6.311065E-2,2.1139145E-1,7.284498E-2,4.9064445E-1,1.7407918E-1,1.5829659E-1,3.9248466E-2,0E0,0E0,0E0,0E0,0E0,0E0,0E0,0E0,0E0,0E0,0E0,0E0,0E0,0E0,0E0,0E0,0E0,0E0,0E0,0E0,0E0,0E0,0E0,0E0,0E0,0E0,0E0,0E0,0E0,0E0,0E0,0E0],"parents":[2147483647,0,0,1,1,2,2,3,3,4,4,5,5,6,6,7,7,8,8,9,9,10,10,11,11,12,12,13,13,14,14,15,15,16,16,17,17,18,18,19,19,20,20,21,21,22,22,23,23,24,24,25,25,26,26,27,27,28,28,29,29,30,30],"right_children":[2,4,6,8,10,12,14,16,18,20,22,24,26,28,30,32,34,36,38,40,42,44,46,48,50,52,54,56,58,60,62,-1,-1,-1,-1,-1,-1,-1,-1,-1,-1,-1,-1,-1,-1,-1,-1,-1,-1,-1,-1,-1,-1,-1,-1,-1,-1,-1,-1,-1,-1,-1,-1],"split_conditions":[5.61E0,1.81E1,2.6701E1,1.06E1,4.0201E0,1.8901E1,7.73E0,3.55E0,2.7299E0,1.3399E0,2.4999E1,7.4301E0,8.2401E0,3.32E1,3.2001E1,1.0299E0,1.25E1,1.47E0,7.9999E0,1.0299E0,3.0001E0,1.87E1,4.3299E0,1.27E1,1.05E1,1.52E1,8.5402E0,7.3002E0,1.71E1,8.5402E0,8.0699E0,-1.3758639E-2,2.3183946E-2,9.136573E-3,2.3072911E-2,-2.2513318E-4,1.8861894E-2,2.6485359E-3,9.712225E-3,-3.5045434E-2,-1.1950556E-2,9.886871E-3,2.5967085E-3,-2.6787429E-3,8.0183605E-3,-2.4121196E-3,-8.745907E-3,-2.3424195E-3,4.6834163E-3,-9.966765E-3,-4.710277E-3,-9.954797E-3,-3.5438088E-3,-1.433826E-2,-2.011296E-2,-2.2383671E-2,-1.3002129E-2,-2.5703523E-2,-7.6081394E-3,-2.0653563E-2,-2.9653197E-2,-2.5046358E-2,-3.482303E-2],"split_indices":[1,0,0,0,1,0,1,1,1,1,0,1,1,0,0,1,2,1,2,1,1,2,1,2,2,2,1,2,2,1,1,0,0,0,0,0,0,0,0,0,0,0,0,0,0,0,0,0,0,0,0,0,0,0,0,0,0,0,0,0,0,0,0],"split_type":[0,0,0,0,0,0,0,0,0,0,0,0,0,0,0,0,0,0,0,0,0,0,0,0,0,0,0,0,0,0,0,0,0,0,0,0,0,0,0,0,0,0,0,0,0,0,0,0,0,0,0,0,0,0,0,0,0,0,0,0,0,0,0],"sum_hessian":[4.38E3,2.49E3,1.89E3,1.718E3,7.72E2,1.179E3,7.11E2,6.7E2,1.048E3,3E2,4.72E2,4.03E2,7.76E2,4.56E2,2.55E2,4.56E2,2.14E2,2.78E2,7.7E2,8E0,2.92E2,3.18E2,1.54E2,3.02E2,1.01E2,6.39E2,1.37E2,3.92E2,6.4E1,2E2,5.5E1,8E0,4.48E2,1.69E2,4.5E1,3.8E1,2.4E2,2.47E2,5.23E2,3E0,5E0,9.3E1,1.99E2,2.99E2,1.9E1,2.1E1,1.33E2,2.13E2,8.9E1,5.9E1,4.2E1,5.81E2,5.8E1,9.5E1,4.2E1,7E1,3.22E2,5.7E1,7E0,1.71E2,2.9E1,2.4E1,3.1E1],"tree_param":{"num_deleted":"0","num_feature":"3","num_nodes":"63","size_leaf_vector":"1"}},{"base_weights":[-2.4388202E-4,1.0893181E-1,-8.113877E-2,1.7120568E-1,6.3008495E-2,-3.0227391E-2,-1.4471684E-1,3.0619988E-1,1.5869766E-1,1.0215665E-1,3.3224583E-2,-3.8530654E-3,-9.2327476E-2,-1.0511983E-1,-1.7941217E-1,4.1073397E-1,2.5844264E-1,6.998485E-2,1.7425635E-1,-3.479651E-1,1.0881319E-1,6.757662E-2,6.6199056E-3,6.926474E-2,-2.0890733E-2,-7.345678E-2,-1.2721969E-1,-9.216932E-2,-1.6925953E-1,-1.3956818E-1,-2.0868139E-1,-1.0533333E-3,4.347229E-2,1.4611644E-2,2.84157E-2,1.5292972E-2,1.0208717E-3,-5.4400216E-4,1.8280802E-2,-5.248388E-4,-4.8400212E-2,1.16585335E-2,-3.0463792E-3,3.4741126E-3,1.3747449E-2,1.1410528E-3,-1.2766997E-2,-2.449151E-3,9.678039E-3,-7.450896E-3,-2.2292757E-4,6.613982E-5,-8.507981E-3,-1.0704427E-2,-1.5324743E-2,-1.4831063E-2,-7.2718114E-3,-6.57866E-3,-1.7749108E-2,5.9557916E-3,-1.4058662E-2,-1.8166022E-2,-2.608932E-2],"categories":[],"categories_nodes":[],"categories_segments":[],"categories_sizes":[],"default_left":[0,0,0,0,0,0,0,0,0,0,0,0,0,0,0,0,0,0,0,0,0,0,0,0,0,0,0,0,0,0,0,0,0,0,0,0,0,0,0,0,0,0,0,0,0,0,0,0,0,0,0,0,0,0,0,0,0,0,0,0,0,0,0],"id":19,"left_children":[1,3,5,7,9,11,13,15,17,19,21,23,25,27,29,31,33,35,37,39,41,43,45,47,49,51,53,55,57,59,61,-1,-1,-1,-1,-1,-1,-1,-1,-1,-1,-1,-1,-1,-1,-1,-1,-1,-1,-1,-1,-1,-1,-1,-1,-1,-1,-1,-1,-1,-1,-1,-1],"loss_changes":[3.870076E1,5.3227806E0,8.142771E0,1.2870197E0,1.2500396E0,2.2909932E0,1.5184555E0,2.2333813E-1,9.8986816E-1,1.4281249E0,5.588746E-1,1.226026E0,2.6522446E-1,4.2048645E-1,6.647663E-1,1.9658828E-1,9.712291E-2,5.438324E-1,9.4914246E-1,3.2381475E-1,4.9932766E-1,6.08024E-1,2.240497E-1,4.822064E-1,7.9830796E-1,2.3523962E-1,5.973816E-2,4.6861053E-1,6.2425137E-2,6.0086727E-2,4.336977E-1,0E0,0E0,0E0,0E0,0E0,0E0,0E0,0E0,0E0,0E0,0E0,0E0,0E0,0E0,0E0,0E0,0E0,0E0,0E0,0E0,0E0,0E0,0E0,0E0,0E0,0E0,0E0,0E0,0E0,0E0,0E0,0E0],"parents":[2147483647,0,0,1,1,2,2,3,3,4,4,5,5,6,6,7,7,8,8,9,9,10,10,11,11,12,12,13,13,14,14,15,15,16,16,17,17,18,18,19,19,20,20,21,21,22,22,23,23,24,24,25,25,26,26,27,27,28,28,29,29,30,30],"right_children":[2,4,6,8,10,12,14,16,18,20,22,24,26,28,30,32,34,36,38,40,42,44,46,48,50,52,54,56,58,60,62,-1,-1,-1,-1,-1,-1,-1,-1,-1,-1,-1,-1,-1,-1,-1,-1,-1,-1,-1,-1,-1,-1,-1,-1,-1,-1,-1,-1,-1,-1,-1,-1],"split_conditions":[4.37E0,1.22E1,2.47E1,4.4007E0,3.15E0,7.29E0,7.1598E0,2.4996E0,5.7998E0,1.0299E0,1.71E1,1.2801E1,8.1099E0,3.1401E1,2.78E1,1.2701E0,5.8998E0,2.9901E0,1.2701E0,1.62E1,2.28E1,1.19E1,2.84E1,7.0001E0,8.1001E0,7.5999E0,2.29E1,8.1999E0,5.51E0,5.1998E0,8.0699E0,-1.0533333E-3,4.347229E-2,1.4611644E-2,2.84157E-2,1.5292972E-2,1.0208717E-3,-5.4400216E-4,1.8280802E-2,-5.248388E-4,-4.8400212E-2,1.16585335E-2,-3.0463792E-3,3.4741126E-3,1.3747449E-2,1.1410528E-3,-1.2766997E-2,-2.449151E-3,9.678039E-3,-7.450896E-3,-2.2292757E-4,6.613982E-5,-8.507981E-3,-1.0704427E-2,-1.5324743E-2,-1.4831063E-2,-7.2718114E-3,-6.57866E-3,-1.7749108E-2,5.9557916E-3,-1.4058662E-2,-1.8166022E-2,-2.608932E-2],"split_indices":[1,0,0,0,1,1,1,0,2,1,0,0,1,0,0,1,2,1,1,0,0,2,0,2,2,2,0,2,1,2,1,0,0,0,0,0,0,0,0,0,0,0,0,0,0,0,0,0,0,0,0,0,0,0,0,0,0,0,0,0,0,0,0],"split_type":[0,0,0,0,0,0,0,0,0,0,0,0,0,0,0,0,0,0,0,0,0,0,0,0,0,0,0,0,0,0,0,0,0,0,0,0,0,0,0,0,0,0,0,0,0,0,0,0,0,0,0,0,0,0,0,0,0,0,0,0,0,0,0],"sum_hessian":[4.38E3,1.864E3,2.516E3,7.9E2,1.074E3,1.398E3,1.118E3,6.5E1,7.25E2,4.63E2,6.11E2,9.82E2,4.16E2,5.24E2,5.94E2,1.8E1,4.7E1,1.09E2,6.16E2,6E0,4.57E2,2.66E2,3.45E2,1.85E2,7.97E2,2.72E2,1.44E2,4.38E2,8.6E1,2.54E2,3.4E2,1E0,1.7E1,1E1,3.7E1,4.5E1,6.4E1,2.8E1,5.88E2,2E0,4E0,4.33E2,2.4E1,1.82E2,8.4E1,3.34E2,1.1E1,4.2E1,1.43E2,2.05E2,5.92E2,3.7E1,2.35E2,8.4E1,6E1,1.11E2,3.27E2,7E0,7.9E1,1E0,2.53E2,2.27E2,1.13E2],"tree_param":{"num_deleted":"0","num_feature":"3","num_nodes":"63","size_leaf_vector":"1"}},{"base_weights":[-2.302933E-4,7.384748E-2,-9.781226E-2,1.1934679E-1,9.831212E-3,-6.325342E-2,-1.5494937E-1,1.8548808E-1,9.3595505E-2,2.6115272E-2,-6.3283674E-2,-1.7604932E-2,-8.690687E-2,-1.3103989E-1,-1.9702625E-1,4.767143E-2,2.1250585E-1,8.2961194E-2,2.2879109E-1,6.587108E-2,2.2575285E-3,-3.0253729E-2,-5.910697E-2,1.21235676E-1,-2.364278E-2,-7.2160244E-2,-1.18824065E-1,-1.1968069E-1,-1.9770332E-1,-1.7890127E-1,-2.585637E-1,1.3810597E-2,-8.1185636E-4,2.9178947E-2,1.7919352E-2,1.3949351E-2,6.17741E-3,2.9712362E-2,1.5986372E-2,-1.6124656E-2,7.686086E-3,-3.136022E-3,1.7365626E-3,-5.2431817E-3,-1.2717068E-2,9.313584E-4,1.4455373E-2,-5.4747625E-3,5.56793E-4,-1.601551E-2,-6.8066414E-3,-1.07750585E-2,-1.6808033E-2,-1.8616123E-2,-1.0469679E-2,-2.1414489E-2,-5.378902E-3,-1.6106931E-2,-2.2330849E-2,-2.337618E-2,-3.3877496E-2],"categories":[],"categories_nodes":[],"categories_segments":[],"categories_sizes":[],"default_left":[0,0,0,0,0,0,0,0,0,0,0,0,0,0,0,0,0,0,0,0,0,0,0,0,0,0,0,0,0,0,0,0,0,0,0,0,0,0,0,0,0,0,0,0,0,0,0,0,0,0,0,0,0,0,0,0,0,0,0,0,0],"id":20,"left_children":[1,3,5,7,9,11,13,15,17,19,21,23,25,27,29,31,33,35,37,39,41,-1,43,45,47,49,51,53,55,57,59,-1,-1,-1,-1,-1,-1,-1,-1,-1,-1,-1,-1,-1,-1,-1,-1,-1,-1,-1,-1,-1,-1,-1,-1,-1,-1,-1,-1,-1,-1],"loss_changes":[3.1675957E1,7.2543526E0,3.7241535E0,2.462532E0,1.2351218E0,1.2725682E0,6.904812E-1,1.5053339E0,1.4906178E0,8.041656E-1,1.7098415E-1,3.41539E-1,3.571372E-1,3.223982E-1,2.3927593E-1,3.4420455E-1,8.4569454E-1,1.1591945E0,3.1045938E-1,8.0611277E-1,2.702396E-1,0E0,7.8293025E-2,4.3020368E-2,3.5283947E-1,1.8146491E-1,1.1497617E-1,3.7199163E-1,1.4228272E-1,1.23197556E-1,3.221321E-2,0E0,0E0,0E0,0E0,0E0,0E0,0E0,0E0,0E0,0E0,0E0,0E0,0E0,0E0,0E0,0E0,0E0,0E0,0E0,0E0,0E0,0E0,0E0,0E0,0E0,0E0,0E0,0E0,0E0,0E0],"parents":[2147483647,0,0,1,1,2,2,3,3,4,4,5,5,6,6,7,7,8,8,9,9,10,10,11,11,12,12,13,13,14,14,15,15,16,16,17,17,18,18,19,19,20,20,22,22,23,23,24,24,25,25,26,26,27,27,28,28,29,29,30,30],"right_children":[2,4,6,8,10,12,14,16,18,20,22,24,26,28,30,32,34,36,38,40,42,-1,44,46,48,50,52,54,56,58,60,-1,-1,-1,-1,-1,-1,-1,-1,-1,-1,-1,-1,-1,-1,-1,-1,-1,-1,-1,-1,-1,-1,-1,-1,-1,-1,-1,-1,-1,-1],"split_conditions":[5.61E0,1.5799E1,2.6701E1,2.64E0,2.4999E1,1.8901E1,7.73E0,1.47E0,2.02E1,3.6401E0,1.2701E0,9.3021E0,7.92E0,3.32E1,3.2001E1,8.4009E0,8.6983E0,8.5016E0,1.1001E1,1.3399E0,8.0002E0,-3.0253729E-2,3.0998E1,7.0001E0,1.01E1,1.94E1,8.5402E0,7.3002E0,1.71E1,8.4E0,3.59E1,1.3810597E-2,-8.1185636E-4,2.9178947E-2,1.7919352E-2,1.3949351E-2,6.17741E-3,2.9712362E-2,1.5986372E-2,-1.6124656E-2,7.686086E-3,-3.136022E-3,1.7365626E-3,-5.2431817E-3,-1.2717068E-2,9.313584E-4,1.4455373E-2,-5.4747625E-3,5.56793E-4,-1.601551E-2,-6.8066414E-3,-1.07750585E-2,-1.6808033E-2,-1.8616123E-2,-1.0469679E-2,-2.1414489E-2,-5.378902E-3,-1.6106931E-2,-2.2330849E-2,-2.337618E-2,-3.3877496E-2],"split_indices":[1,0,0,1,0,0,1,1,2,1,1,0,1,0,0,0,0,0,0,1,2,0,0,2,2,0,1,2,2,1,0,0,0,0,0,0,0,0,0,0,0,0,0,0,0,0,0,0,0,0,0,0,0,0,0,0,0,0,0,0,0],"split_type":[0,0,0,0,0,0,0,0,0,0,0,0,0,0,0,0,0,0,0,0,0,0,0,0,0,0,0,0,0,0,0,0,0,0,0,0,0,0,0,0,0,0,0,0,0,0,0,0,0,0,0,0,0,0,0,0,0,0,0,0,0],"sum_hessian":[4.38E3,2.49E3,1.89E3,1.455E3,1.035E3,1.179E3,7.11E2,4.06E2,1.049E3,8.47E2,1.88E2,4.03E2,7.76E2,4.56E2,2.55E2,6.7E1,3.39E2,9.74E2,7.5E1,3.17E2,5.3E2,2E0,1.86E2,1.6E1,3.87E2,5.33E2,2.43E2,3.92E2,6.4E1,2E2,5.5E1,2.5E1,4.2E1,9.8E1,2.41E2,2.64E2,7.1E2,3.6E1,3.9E1,1.4E1,3.03E2,1.64E2,3.66E2,1.71E2,1.5E1,3E0,1.3E1,1.87E2,2E2,2.2E1,5.11E2,2.01E2,4.2E1,7E1,3.22E2,5.7E1,7E0,1.46E2,5.4E1,4.5E1,1E1],"tree_param":{"num_deleted":"0","num_feature":"3","num_nodes":"61","size_leaf_vector":"1"}},{"base_weights":[-2.3546309E-4,7.070343E-2,-8.379657E-2,1.1626479E-1,1.4382899E-2,-2.6672859E-2,-1.1372303E-1,1.5838486E-1,8.205979E-2,3.7506487E-2,-2.9998004E-2,3.130726E-3,-4.8127376E-2,-8.7862276E-2,-1.566468E-1,2.4956632E-1,1.4263026E-1,-2.4004698E-1,8.463004E-2,-1.2357517E-2,6.1096985E-2,3.824382E-2,-4.2792883E-2,2.0430775E-2,-6.9832526E-2,-5.563094E-2,2.1358252E-2,-6.0669973E-2,-1.0408116E-1,-1.397575E-1,-2.1804744E-1,3.5845343E-2,2.1912215E-2,1.2209303E-2,1.9869154E-2,-4.7449946E-2,1.5257199E-2,1.2742895E-2,6.3629686E-3,6.423308E-3,-2.9264854E-3,1.0195689E-2,3.3881534E-3,-1.1113405E-2,6.0925763E-3,-7.838594E-3,-2.4961408E-3,-1.6822219E-4,4.6210894E-3,-2.8236771E-2,-5.6731827E-3,-2.8062307E-3,-7.594231E-3,1.9674905E-2,-9.3189784E-4,-1.0434404E-2,-3.947684E-3,-9.784288E-3,-1.628661E-2,-1.3197717E-2,-2.4390532E-2,-1.952513E-2,-2.6394958E-2],"categories":[],"categories_nodes":[],"categories_segments":[],"categories_sizes":[],"default_left":[0,0,0,0,0,0,0,0,0,0,0,0,0,0,0,0,0,0,0,0,0,0,0,0,0,0,0,0,0,0,0,0,0,0,0,0,0,0,0,0,0,0,0,0,0,0,0,0,0,0,0,0,0,0,0,0,0,0,0,0,0,0,0],"id":21,"left_children":[1,3,5,7,9,11,13,15,17,19,21,23,25,27,29,31,33,35,37,39,41,43,45,47,49,51,53,55,57,59,61,-1,-1,-1,-1,-1,-1,-1,-1,-1,-1,-1,-1,-1,-1,-1,-1,-1,-1,-1,-1,-1,-1,-1,-1,-1,-1,-1,-1,-1,-1,-1,-1],"loss_changes":[2.597532E1,6.0798426E0,3.4365025E0,1.874342E0,1.0899719E0,4.432698E-1,1.4514904E0,8.0620956E-1,6.205392E-1,8.21824E-1,3.1946167E-1,3.687467E-1,2.113083E-1,3.57975E-1,4.8284817E-1,2.0322847E-1,5.537157E-1,6.246983E-1,6.390219E-1,2.9324198E-1,5.236434E-1,2.0328541E-1,1.9288915E-1,1.3461557E-1,1.3990498E-1,2.0169306E-1,2.1705367E-1,2.8373933E-1,1.732912E-1,2.8463936E-1,5.833435E-2,0E0,0E0,0E0,0E0,0E0,0E0,0E0,0E0,0E0,0E0,0E0,0E0,0E0,0E0,0E0,0E0,0E0,0E0,0E0,0E0,0E0,0E0,0E0,0E0,0E0,0E0,0E0,0E0,0E0,0E0,0E0,0E0],"parents":[2147483647,0,0,1,1,2,2,3,3,4,4,5,5,6,6,7,7,8,8,9,9,10,10,11,11,12,12,13,13,14,14,15,15,16,16,17,17,18,18,19,19,20,20,21,21,22,22,23,23,24,24,25,25,26,26,27,27,28,28,29,29,30,30],"right_children":[2,4,6,8,10,12,14,16,18,20,22,24,26,28,30,32,34,36,38,40,42,44,46,48,50,52,54,56,58,60,62,-1,-1,-1,-1,-1,-1,-1,-1,-1,-1,-1,-1,-1,-1,-1,-1,-1,-1,-1,-1,-1,-1,-1,-1,-1,-1,-1,-1,-1,-1,-1,-1],"split_conditions":[1.98E1,3.7898E0,5.9802E0,1.1301E1,6.0301E0,4.5101E0,2.82E1,5.1009E0,1.0299E0,8.1001E0,1.2799E1,2.5799E1,1.82E1,7.29E0,8.0699E0,2.4996E0,1.55E1,1.42E1,2.64E0,8.4009E0,1.37E1,6.6999E0,8.7002E0,1.17E1,1.2701E0,9.3998E0,2.14E1,8.1999E0,8.5402E0,3.5E1,3.2001E1,3.5845343E-2,2.1912215E-2,1.2209303E-2,1.9869154E-2,-4.7449946E-2,1.5257199E-2,1.2742895E-2,6.3629686E-3,6.423308E-3,-2.9264854E-3,1.0195689E-2,3.3881534E-3,-1.1113405E-2,6.0925763E-3,-7.838594E-3,-2.4961408E-3,-1.6822219E-4,4.6210894E-3,-2.8236771E-2,-5.6731827E-3,-2.8062307E-3,-7.594231E-3,1.9674905E-2,-9.3189784E-4,-1.0434404E-2,-3.947684E-3,-9.784288E-3,-1.628661E-2,-1.3197717E-2,-2.4390532E-2,-1.952513E-2,-2.6394958E-2],"split_indices":[0,1,1,0,1,1,0,0,1,2,0,0,2,1,1,0,2,2,1,0,0,2,2,2,1,2,0,2,1,0,0,0,0,0,0,0,0,0,0,0,0,0,0,0,0,0,0,0,0,0,0,0,0,0,0,0,0,0,0,0,0,0,0],"split_type":[0,0,0,0,0,0,0,0,0,0,0,0,0,0,0,0,0,0,0,0,0,0,0,0,0,0,0,0,0,0,0,0,0,0,0,0,0,0,0,0,0,0,0,0,0,0,0,0,0,0,0,0,0,0,0,0,0,0,0,0,0,0,0],"sum_hessian":[4.38E3,2.369E3,2.011E3,1.309E3,1.06E3,6.92E2,1.319E3,5.85E2,7.24E2,6.97E2,3.63E2,2.9E2,4.02E2,8.25E2,4.94E2,8.4E1,5.01E2,5E0,7.19E2,2.24E2,4.73E2,5.7E1,3.06E2,2.35E2,5.5E1,3.63E2,3.9E1,3.1E2,5.15E2,3.9E2,1.04E2,1.6E1,6.8E1,3.69E2,1.32E2,3E0,2E0,2.35E2,4.84E2,4E1,1.84E2,1.88E2,2.85E2,7E0,5E1,1.01E2,2.05E2,1.27E2,1.08E2,2E0,5.3E1,1.55E2,2.08E2,5E0,3.4E1,1E2,2.1E2,4.68E2,4.7E1,3.65E2,2.5E1,7.3E1,3.1E1],"tree_param":{"num_deleted":"0","num_feature":"3","num_nodes":"63","size_leaf_vector":"1"}},{"base_weights":[-2.2692246E-4,6.3666485E-2,-7.548892E-2,1.116781E-1,1.9897914E-2,-2.4036055E-2,-1.02444485E-1,1.9151409E-1,9.183803E-2,4.1611232E-2,-2.2645533E-2,-7.084271E-3,-5.600303E-2,-7.912456E-2,-1.4115119E-1,8.683094E-2,2.1044043E-1,-2.2032635E-1,9.591631E-2,3.170223E-2,1.2715514E-1,-4.8719715E-2,4.9382187E-3,2.0014526E-2,-3.2647304E-2,-3.145361E-2,-5.360525E-2,-5.4648638E-2,-9.372318E-2,-1.2587841E-1,-1.9667979E-1,1.3636599E-2,2.9719989E-3,7.386833E-3,2.2350937E-2,2.5932312E-2,-3.4218855E-2,1.2963781E-2,7.1171336E-3,2.0018887E-2,2.6730194E-3,2.2146568E-2,5.9938994E-3,2.4700165E-3,-6.6062086E-3,4.923678E-3,-3.6094454E-3,-1.0931469E-2,2.4755737E-3,-4.2188754E-3,6.1215227E-3,-5.6763007E-3,1.0553016E-2,-9.4012255E-3,-3.5547342E-3,-8.886307E-3,-1.560563E-2,-1.168693E-2,-1.99935E-2,-1.7598962E-2,-2.3837958E-2],"categories":[],"categories_nodes":[],"categories_segments":[],"categories_sizes":[],"default_left":[0,0,0,0,0,0,0,0,0,0,0,0,0,0,0,0,0,0,0,0,0,0,0,0,0,0,0,0,0,0,0,0,0,0,0,0,0,0,0,0,0,0,0,0,0,0,0,0,0,0,0,0,0,0,0,0,0,0,0,0,0],"id":22,"left_children":[1,3,5,7,9,11,13,15,17,19,21,23,25,27,29,31,33,35,37,39,41,43,45,47,49,-1,51,53,55,57,59,-1,-1,-1,-1,-1,-1,-1,-1,-1,-1,-1,-1,-1,-1,-1,-1,-1,-1,-1,-1,-1,-1,-1,-1,-1,-1,-1,-1,-1,-1],"loss_changes":[2.1071918E1,4.978096E0,2.788063E0,1.7722759E0,1.1473278E0,3.7513807E-1,1.1803131E0,4.255314E-1,1.175828E0,6.9274116E-1,3.0231455E-1,3.1515166E-1,1.319164E-1,2.9002047E-1,3.9503956E-1,9.779099E-2,3.2082748E-1,7.9015106E-1,7.3842907E-1,6.128875E-1,5.255568E-1,2.7665913E-1,3.7440324E-1,1.3821828E-1,2.1214932E-1,0E0,1.2609017E-1,2.3049766E-1,1.4245224E-1,2.375021E-1,4.8639297E-2,0E0,0E0,0E0,0E0,0E0,0E0,0E0,0E0,0E0,0E0,0E0,0E0,0E0,0E0,0E0,0E0,0E0,0E0,0E0,0E0,0E0,0E0,0E0,0E0,0E0,0E0,0E0,0E0,0E0,0E0],"parents":[2147483647,0,0,1,1,2,2,3,3,4,4,5,5,6,6,7,7,8,8,9,9,10,10,11,11,12,12,13,13,14,14,15,15,16,16,17,17,18,18,19,19,20,20,21,21,22,22,23,23,24,24,26,26,27,27,28,28,29,29,30,30],"right_children":[2,4,6,8,10,12,14,16,18,20,22,24,26,28,30,32,34,36,38,40,42,44,46,48,50,-1,52,54,56,58,60,-1,-1,-1,-1,-1,-1,-1,-1,-1,-1,-1,-1,-1,-1,-1,-1,-1,-1,-1,-1,-1,-1,-1,-1,-1,-1,-1,-1,-1,-1],"split_conditions":[1.98E1,3.5199E0,5.9802E0,8.097E0,5.7897E0,2.51E1,2.82E1,5.7998E0,1.0299E0,1.79E1,1.04E1,4.5101E0,1.0299E0,7.29E0,8.0699E0,6.2005E0,1.3399E0,9.4001E0,2.66E0,4.4007E0,1.3498E1,1.2499E1,6.8099E0,1.9201E0,1.82E1,-3.145361E-2,5.94E0,8.1999E0,8.6E0,3.4301E1,3.2001E1,1.3636599E-2,2.9719989E-3,7.386833E-3,2.2350937E-2,2.5932312E-2,-3.4218855E-2,1.2963781E-2,7.1171336E-3,2.0018887E-2,2.6730194E-3,2.2146568E-2,5.9938994E-3,2.4700165E-3,-6.6062086E-3,4.923678E-3,-3.6094454E-3,-1.0931469E-2,2.4755737E-3,-4.2188754E-3,6.1215227E-3,-5.6763007E-3,1.0553016E-2,-9.4012255E-3,-3.5547342E-3,-8.886307E-3,-1.560563E-2,-1.168693E-2,-1.99935E-2,-1.7598962E-2,-2.3837958E-2],"split_indices":[0,1,1,0,1,0,0,2,1,2,2,1,1,1,1,0,1,2,1,0,0,0,1,1,2,0,1,2,1,0,0,0,0,0,0,0,0,0,0,0,0,0,0,0,0,0,0,0,0,0,0,0,0,0,0,0,0,0,0,0,0],"split_type":[0,0,0,0,0,0,0,0,0,0,0,0,0,0,0,0,0,0,0,0,0,0,0,0,0,0,0,0,0,0,0,0,0,0,0,0,0,0,0,0,0,0,0,0,0,0,0,0,0,0,0,0,0,0,0,0,0,0,0,0,0],"sum_hessian":[4.38E3,2.369E3,2.011E3,1.129E3,1.24E3,6.92E2,1.319E3,2.23E2,9.06E2,8.21E2,4.19E2,4.53E2,2.39E2,8.25E2,4.94E2,3.5E1,1.88E2,1.1E1,8.95E2,7.37E2,8.4E1,2.15E2,2.04E2,2.2E2,2.33E2,1E0,2.38E2,3.1E2,5.15E2,3.9E2,1.04E2,1.8E1,1.7E1,1.7E1,1.71E2,2E0,9E0,3.77E2,5.18E2,2E1,7.17E2,3.4E1,5E1,4.1E1,1.74E2,9.8E1,1.06E2,7E0,2.13E2,2.12E2,2.1E1,2.34E2,4E0,1E2,2.1E2,4.8E2,3.5E1,3.5E2,4E1,7.3E1,3.1E1],"tree_param":{"num_deleted":"0","num_feature":"3","num_nodes":"61","size_leaf_vector":"1"}},{"base_weights":[-2.125503E-4,6.6991314E-2,-5.8429096E-2,9.740353E-2,2.1009143E-2,-4.626903E-3,-8.52414E-2,1.300375E-1,6.7323856E-2,-3.6987968E-2,3.2852754E-2,3.7264623E-2,-1.832256E-2,-6.598109E-2,-1.23672515E-1,-1.1815616E-2,1.3691022E-1,-5.0206024E-2,7.299365E-2,3.586899E-2,-5.037143E-2,5.454715E-2,-1.920446E-2,-1.7868465E-1,4.756883E-2,-2.3406236E-2,4.0908124E-2,-8.0053605E-2,-4.3956287E-2,-9.586871E-2,-1.5218793E-1,1.1766863E-2,-1.7027196E-2,1.9637613E-2,1.1063813E-2,-2.1176228E-2,6.9262716E-3,1.1847977E-2,5.306894E-3,5.355909E-3,-3.4989167E-3,-1.07349595E-2,-3.8927426E-3,3.0674491E-2,5.121863E-3,6.0605803E-3,-3.780684E-3,-2.529688E-2,-9.938112E-3,8.305836E-3,2.3695675E-3,-9.818674E-4,-4.3525593E-3,7.607723E-3,-8.110688E-3,-6.473228E-3,-9.874965E-3,5.6654037E-5,-5.794284E-3,-1.0030777E-2,4.2529637E-3,-1.4592026E-2,-2.6747052E-2],"categories":[],"categories_nodes":[],"categories_segments":[],"categories_sizes":[],"default_left":[0,0,0,0,0,0,0,0,0,0,0,0,0,0,0,0,0,0,0,0,0,0,0,0,0,0,0,0,0,0,0,0,0,0,0,0,0,0,0,0,0,0,0,0,0,0,0,0,0,0,0,0,0,0,0,0,0,0,0,0,0,0,0],"id":23,"left_children":[1,3,5,7,9,11,13,15,17,19,21,23,25,27,29,31,33,35,37,39,41,43,45,47,49,51,53,55,57,59,61,-1,-1,-1,-1,-1,-1,-1,-1,-1,-1,-1,-1,-1,-1,-1,-1,-1,-1,-1,-1,-1,-1,-1,-1,-1,-1,-1,-1,-1,-1,-1,-1],"loss_changes":[1.7144035E1,2.8423386E0,3.3867378E0,1.1927481E0,5.582871E-1,4.4934115E-1,1.1517267E0,5.729189E-1,4.2947507E-1,1.363676E-1,7.622293E-1,4.3796086E-1,1.7861217E-1,3.2068253E-1,3.9927006E-1,5.9452844E-1,8.515959E-1,5.936949E-1,5.4655385E-1,2.945072E-2,7.2111994E-2,3.8386512E-1,2.977388E-1,2.7878612E-2,1.5477258E-1,1.482875E-1,2.0785484E-1,1.7607498E-1,2.5534832E-1,1.6829991E-1,1.459446E-1,0E0,0E0,0E0,0E0,0E0,0E0,0E0,0E0,0E0,0E0,0E0,0E0,0E0,0E0,0E0,0E0,0E0,0E0,0E0,0E0,0E0,0E0,0E0,0E0,0E0,0E0,0E0,0E0,0E0,0E0,0E0,0E0],"parents":[2147483647,0,0,1,1,2,2,3,3,4,4,5,5,6,6,7,7,8,8,9,9,10,10,11,11,12,12,13,13,14,14,15,15,16,16,17,17,18,18,19,19,20,20,21,21,22,22,23,23,24,24,25,25,26,26,27,27,28,28,29,29,30,30],"right_children":[2,4,6,8,10,12,14,16,18,20,22,24,26,28,30,32,34,36,38,40,42,44,46,48,50,52,54,56,58,60,62,-1,-1,-1,-1,-1,-1,-1,-1,-1,-1,-1,-1,-1,-1,-1,-1,-1,-1,-1,-1,-1,-1,-1,-1,-1,-1,-1,-1,-1,-1,-1,-1],"split_conditions":[1.8E1,3.7898E0,5.61E0,1.1301E1,6.8001E0,3.61E0,2.82E1,1.2701E0,1.47E0,7.4003E0,6.19E0,1.3399E0,1.87E1,1.03E1,7.4101E0,1.38E1,2.4599E0,1.42E1,2.64E0,6.3003E0,1.0099E1,3.9996E0,1.2499E1,1.0299E0,1.99E1,2.3499E1,2.77E1,7.63E0,2.0801E1,2.12E1,3.59E1,1.1766863E-2,-1.7027196E-2,1.9637613E-2,1.1063813E-2,-2.1176228E-2,6.9262716E-3,1.1847977E-2,5.306894E-3,5.355909E-3,-3.4989167E-3,-1.07349595E-2,-3.8927426E-3,3.0674491E-2,5.121863E-3,6.0605803E-3,-3.780684E-3,-2.529688E-2,-9.938112E-3,8.305836E-3,2.3695675E-3,-9.818674E-4,-4.3525593E-3,7.607723E-3,-8.110688E-3,-6.473228E-3,-9.874965E-3,5.6654037E-5,-5.794284E-3,-1.0030777E-2,4.2529637E-3,-1.4592026E-2,-2.6747052E-2],"split_indices":[0,1,1,0,2,1,0,1,1,0,1,1,2,2,1,2,1,2,1,2,0,0,0,1,0,0,0,1,0,2,0,0,0,0,0,0,0,0,0,0,0,0,0,0,0,0,0,0,0,0,0,0,0,0,0,0,0,0,0,0,0,0,0],"split_type":[0,0,0,0,0,0,0,0,0,0,0,0,0,0,0,0,0,0,0,0,0,0,0,0,0,0,0,0,0,0,0,0,0,0,0,0,0,0,0,0,0,0,0,0,0,0,0,0,0,0,0,0,0,0,0,0,0,0,0,0,0,0,0],"sum_hessian":[4.38E3,2.033E3,2.347E3,1.223E3,8.1E2,7.81E2,1.566E3,5.85E2,6.38E2,1.37E2,6.73E2,1.92E2,5.89E2,1.045E3,5.21E2,2.7E1,5.58E2,2.9E1,6.09E2,2.1E1,1.16E2,4.75E2,1.98E2,8E0,1.84E2,5.43E2,4.6E1,6.36E2,4.09E2,2.66E2,2.55E2,1.5E1,1.2E1,1.69E2,3.89E2,1.2E1,1.7E1,1.84E2,4.25E2,1.7E1,4E0,1.8E1,9.8E1,5E0,4.7E2,3.7E1,1.61E2,3E0,5E0,7.3E1,1.11E2,3.25E2,2.18E2,3.6E1,1E1,3.52E2,2.84E2,9.8E1,3.11E2,2.58E2,8E0,2.44E2,1.1E1],"tree_param":{"num_deleted":"0","num_feature":"3","num_nodes":"63","size_leaf_vector":"1"}},{"base_weights":[-2.0174947E-4,6.0318623E-2,-5.2628595E-2,9.289874E-2,2.5458844E-2,-4.2029233E-3,-7.676149E-2,1.5946174E-1,7.518629E-2,4.11919E-2,-1.1072474E-2,8.034244E-3,-4.2640354E-2,-5.465252E-2,-1.04279645E-1,6.666093E-2,1.7665832E-1,-1.9352889E-1,7.902234E-2,-2.8184041E-2,5.4300986E-2,1.3725917E-2,-3.3273112E-2,4.2884666E-2,-7.1009626E-3,-1.8886726E-1,-3.7640344E-2,-6.0369242E-2,3.492631E-4,-1.00051634E-1,-2.4239525E-1,1.1206156E-2,1.5034676E-3,6.761197E-3,1.8946629E-2,2.3419064E-2,-3.0249184E-2,1.125311E-2,6.1659603E-3,5.8577918E-3,-4.694289E-3,8.273423E-3,3.3491428E-3,-5.6673484E-3,2.651809E-3,-2.4509626E-3,-8.886001E-3,-7.803102E-3,5.045636E-3,-1.3119656E-3,7.3462324E-3,-2.8616047E-2,-1.1217652E-2,-6.2146655E-4,-4.9319966E-3,-5.289963E-3,-8.7256245E-3,1.6388621E-2,-1.4522268E-3,-1.11840125E-2,-5.6707915E-3,-9.665903E-3,-2.5321824E-2],"categories":[],"categories_nodes":[],"categories_segments":[],"categories_sizes":[],"default_left":[0,0,0,0,0,0,0,0,0,0,0,0,0,0,0,0,0,0,0,0,0,0,0,0,0,0,0,0,0,0,0,0,0,0,0,0,0,0,0,0,0,0,0,0,0,0,0,0,0,0,0,0,0,0,0,0,0,0,0,0,0,0,0],"id":24,"left_children":[1,3,5,7,9,11,13,15,17,19,21,23,25,27,29,31,33,35,37,39,41,43,45,47,49,51,53,55,57,59,61,-1,-1,-1,-1,-1,-1,-1,-1,-1,-1,-1,-1,-1,-1,-1,-1,-1,-1,-1,-1,-1,-1,-1,-1,-1,-1,-1,-1,-1,-1,-1,-1],"loss_changes":[1.3903615E1,2.3077216E0,2.7436714E0,1.2271318E0,5.6600934E-1,3.6816823E-1,9.476614E-1,3.3931255E-1,8.729224E-1,6.2723565E-1,1.6396712E-1,3.1362072E-1,1.3107565E-1,2.7388954E-1,3.827634E-1,8.269428E-2,2.4557209E-1,6.3010776E-1,4.7072268E-1,1.8178082E-1,3.398137E-1,1.2848201E-1,7.43023E-2,1.6873375E-1,2.0219135E-1,1.2668446E-2,6.722885E-2,1.5384316E-1,2.0423973E-1,3.4008646E-1,7.0701838E-3,0E0,0E0,0E0,0E0,0E0,0E0,0E0,0E0,0E0,0E0,0E0,0E0,0E0,0E0,0E0,0E0,0E0,0E0,0E0,0E0,0E0,0E0,0E0,0E0,0E0,0E0,0E0,0E0,0E0,0E0,0E0,0E0],"parents":[2147483647,0,0,1,1,2,2,3,3,4,4,5,5,6,6,7,7,8,8,9,9,10,10,11,11,12,12,13,13,14,14,15,15,16,16,17,17,18,18,19,19,20,20,21,21,22,22,23,23,24,24,25,25,26,26,27,27,28,28,29,29,30,30],"right_children":[2,4,6,8,10,12,14,16,18,20,22,24,26,28,30,32,34,36,38,40,42,44,46,48,50,52,54,56,58,60,62,-1,-1,-1,-1,-1,-1,-1,-1,-1,-1,-1,-1,-1,-1,-1,-1,-1,-1,-1,-1,-1,-1,-1,-1,-1,-1,-1,-1,-1,-1,-1,-1],"split_conditions":[1.8E1,3.4999E0,5.61E0,8.097E0,5.8199E0,2.4999E1,2.6801E1,5.7998E0,1.0299E0,6.1001E0,1.48E1,3.6401E0,2.28E0,1.52E1,3.59E1,6.2005E0,1.47E0,9.4001E0,2.49E0,5.9004E0,1.22E1,6.8001E0,1.6E1,1.6701E0,1.87E1,2.5901E1,4.3299E0,8.1099E0,1.8701E1,1.14E1,6.96E0,1.1206156E-2,1.5034676E-3,6.761197E-3,1.8946629E-2,2.3419064E-2,-3.0249184E-2,1.125311E-2,6.1659603E-3,5.8577918E-3,-4.694289E-3,8.273423E-3,3.3491428E-3,-5.6673484E-3,2.651809E-3,-2.4509626E-3,-8.886001E-3,-7.803102E-3,5.045636E-3,-1.3119656E-3,7.3462324E-3,-2.8616047E-2,-1.1217652E-2,-6.2146655E-4,-4.9319966E-3,-5.289963E-3,-8.7256245E-3,1.6388621E-2,-1.4522268E-3,-1.11840125E-2,-5.6707915E-3,-9.665903E-3,-2.5321824E-2],"split_indices":[0,1,1,0,1,0,0,2,1,2,0,1,1,2,0,0,1,2,1,0,0,2,2,1,2,0,1,1,0,2,1,0,0,0,0,0,0,0,0,0,0,0,0,0,0,0,0,0,0,0,0,0,0,0,0,0,0,0,0,0,0,0,0],"split_type":[0,0,0,0,0,0,0,0,0,0,0,0,0,0,0,0,0,0,0,0,0,0,0,0,0,0,0,0,0,0,0,0,0,0,0,0,0,0,0,0,0,0,0,0,0,0,0,0,0,0,0,0,0,0,0,0,0,0,0,0,0,0,0],"sum_hessian":[4.38E3,2.033E3,2.347E3,1.05E3,9.83E2,7.81E2,1.566E3,2.19E2,8.31E2,6.87E2,2.96E2,5.93E2,1.88E2,8.7E2,6.96E2,3.5E1,1.84E2,1.1E1,8.2E2,1.09E2,5.78E2,1.4E2,1.56E2,1.79E2,4.14E2,5E0,1.83E2,7.88E2,8.2E1,6.77E2,1.9E1,1.8E1,1.7E1,2E1,1.64E2,2E0,9E0,2.78E2,5.42E2,1.9E1,9E1,2.43E2,3.35E2,2.1E1,1.19E2,1.36E2,2E1,1E1,1.69E2,3.86E2,2.8E1,1E0,4E0,5E1,1.33E2,6.19E2,1.69E2,6E0,7.6E1,5.31E2,1.46E2,2E0,1.7E1],"tree_param":{"num_deleted":"0","num_feature":"3","num_nodes":"63","size_leaf_vector":"1"}},{"base_weights":[-1.9208189E-4,4.6636116E-2,-5.535244E-2,7.688201E-2,9.24803E-3,-2.4878427E-2,-7.9845995E-2,1.0332088E-1,4.9629636E-2,5.4254968E-2,-1.5287143E-3,2.2688927E-3,-3.7830714E-2,-5.7802957E-2,-1.06550835E-1,1.974241E-1,9.4158925E-2,-2.5581893E-2,5.610844E-2,3.1583425E-2,1.389342E-1,-4.1112512E-2,1.2713839E-2,1.2819655E-2,-7.282177E-2,-7.074315E-2,-2.2815932E-2,-2.6086548E-2,-6.739733E-2,-9.987589E-2,-1.9295081E-1,2.7829966E-2,1.5998818E-2,-6.791775E-4,1.0091274E-2,3.5850785E-4,-1.6533354E-2,1.0605603E-2,3.7535802E-3,1.07446015E-2,1.5053063E-3,3.1319886E-2,1.1303017E-2,-2.2041467E-3,-8.270465E-3,2.8099061E-3,-4.4020745E-3,-1.7963124E-2,1.7369001E-3,3.8591115E-4,-1.16330935E-2,-4.3298487E-4,-9.846566E-3,1.0726302E-2,-3.2049082E-3,-3.955323E-3,3.3734005E-3,-2.0407168E-2,-6.458897E-3,-1.3781033E-2,-8.584203E-3,-6.100146E-3,-1.9909924E-2],"categories":[],"categories_nodes":[],"categories_segments":[],"categories_sizes":[],"default_left":[0,0,0,0,0,0,0,0,0,0,0,0,0,0,0,0,0,0,0,0,0,0,0,0,0,0,0,0,0,0,0,0,0,0,0,0,0,0,0,0,0,0,0,0,0,0,0,0,0,0,0,0,0,0,0,0,0,0,0,0,0,0,0],"id":25,"left_children":[1,3,5,7,9,11,13,15,17,19,21,23,25,27,29,31,33,35,37,39,41,43,45,47,49,51,53,55,57,59,61,-1,-1,-1,-1,-1,-1,-1,-1,-1,-1,-1,-1,-1,-1,-1,-1,-1,-1,-1,-1,-1,-1,-1,-1,-1,-1,-1,-1,-1,-1,-1,-1],"loss_changes":[1.1318969E1,2.6793714E0,1.4998045E0,9.3875504E-1,5.146979E-1,3.1584054E-1,6.5019274E-1,5.5389166E-1,3.167063E-1,3.891729E-1,4.8367733E-1,2.3148231E-1,2.9884315E-1,1.8477726E-1,2.7081633E-1,1.3107896E-1,4.1453886E-1,2.1255161E-1,5.489037E-1,2.0279047E-1,1.5870786E-1,1.7823479E-1,5.5202055E-1,2.2725455E-1,1.2055649E-1,3.4939086E-1,5.066728E-1,1.1733843E-1,1.6722035E-1,2.3785019E-1,1.6249537E-2,0E0,0E0,0E0,0E0,0E0,0E0,0E0,0E0,0E0,0E0,0E0,0E0,0E0,0E0,0E0,0E0,0E0,0E0,0E0,0E0,0E0,0E0,0E0,0E0,0E0,0E0,0E0,0E0,0E0,0E0,0E0,0E0],"parents":[2147483647,0,0,1,1,2,2,3,3,4,4,5,5,6,6,7,7,8,8,9,9,10,10,11,11,12,12,13,13,14,14,15,15,16,16,17,17,18,18,19,19,20,20,21,21,22,22,23,23,24,24,25,25,26,26,27,27,28,28,29,29,30,30],"right_children":[2,4,6,8,10,12,14,16,18,20,22,24,26,28,30,32,34,36,38,40,42,44,46,48,50,52,54,56,58,60,62,-1,-1,-1,-1,-1,-1,-1,-1,-1,-1,-1,-1,-1,-1,-1,-1,-1,-1,-1,-1,-1,-1,-1,-1,-1,-1,-1,-1,-1,-1,-1,-1],"split_conditions":[1.98E1,3.7898E0,6.5401E0,1.21E1,1.08E1,4.5101E0,2.76E1,4.4007E0,1.8E0,1.23E1,8.1001E0,2.7E1,8.3002E0,7.29E0,3.5E1,2.4996E0,1.3399E0,1.67E1,2.64E0,6.2005E0,1.28E1,7.3002E0,7.1301E0,1.3399E0,1.08E1,5.37E0,8.6999E0,7.18E0,7.3101E0,7.8002E0,6.7E0,2.7829966E-2,1.5998818E-2,-6.791775E-4,1.0091274E-2,3.5850785E-4,-1.6533354E-2,1.0605603E-2,3.7535802E-3,1.07446015E-2,1.5053063E-3,3.1319886E-2,1.1303017E-2,-2.2041467E-3,-8.270465E-3,2.8099061E-3,-4.4020745E-3,-1.7963124E-2,1.7369001E-3,3.8591115E-4,-1.16330935E-2,-4.3298487E-4,-9.846566E-3,1.0726302E-2,-3.2049082E-3,-3.955323E-3,3.3734005E-3,-2.0407168E-2,-6.458897E-3,-1.3781033E-2,-8.584203E-3,-6.100146E-3,-1.9909924E-2],"split_indices":[0,1,1,0,0,1,0,0,1,2,2,0,2,1,0,0,1,0,1,0,2,2,1,1,2,1,2,1,1,2,2,0,0,0,0,0,0,0,0,0,0,0,0,0,0,0,0,0,0,0,0,0,0,0,0,0,0,0,0,0,0,0,0],"split_type":[0,0,0,0,0,0,0,0,0,0,0,0,0,0,0,0,0,0,0,0,0,0,0,0,0,0,0,0,0,0,0,0,0,0,0,0,0,0,0,0,0,0,0,0,0,0,0,0,0,0,0,0,0,0,0,0,0,0,0,0,0,0,0],"sum_hessian":[4.38E3,2.369E3,2.011E3,1.309E3,1.06E3,8.97E2,1.114E3,6.63E2,6.46E2,2.04E2,8.56E2,2.9E2,6.07E2,6.12E2,5.02E2,5.7E1,6.06E2,5.1E1,5.95E2,1.62E2,4.2E1,2.26E2,6.3E2,2.55E2,3.5E1,1.89E2,4.18E2,1.43E2,4.69E2,4.68E2,3.4E1,1.6E1,4.1E1,3.8E1,5.68E2,4.3E1,8E0,1.6E2,4.35E2,2.8E1,1.34E2,4E0,3.8E1,1.56E2,7E1,4.96E2,1.34E2,5E0,2.5E2,1.3E1,2.2E1,5.6E1,1.33E2,2.7E1,3.91E2,1.17E2,2.6E1,8E0,4.61E2,1.24E2,3.44E2,2E0,3.2E1],"tree_param":{"num_deleted":"0","num_feature":"3","num_nodes":"63","size_leaf_vector":"1"}},{"base_weights":[-1.7569376E-4,5.528887E-2,-3.8118333E-2,8.481385E-2,2.7284583E-2,-1.49890315E-2,-7.432577E-2,2.1445725E-2,9.537476E-2,-1.7471097E-1,2.970963E-2,-2.9022982E-3,-4.862353E-2,-5.0429884E-2,-9.4796844E-2,1.6514105E-1,1.8342336E-3,1.3611618E-1,7.692272E-2,1.4189148E-2,-2.846809E-1,5.8769606E-2,1.8281052E-2,3.5566594E-2,-1.1208246E-2,-3.9734386E-2,-7.667145E-2,-1.3751544E-1,-4.481177E-2,-9.019267E-2,-1.8323447E-1,5.966568E-3,1.9807158E-2,1.2389967E-2,-8.849487E-4,2.4740623E-2,1.26639325E-2,-1.28655825E-2,8.0849035E-3,-5.4688137E-3,7.833672E-3,-3.4941006E-2,-8.190537E-3,-6.738887E-4,7.478016E-3,3.5570774E-3,2.361421E-4,9.389765E-4,1.0474751E-2,-4.285326E-3,-5.2415976E-6,-4.688802E-3,5.1831984E-4,-4.949051E-3,-9.550092E-3,3.6715984E-3,-1.5989186E-2,-3.4718749E-3,-8.817043E-3,-7.945597E-3,-1.2022356E-2,-9.823867E-3,-2.0382127E-2],"categories":[],"categories_nodes":[],"categories_segments":[],"categories_sizes":[],"default_left":[0,0,0,0,0,0,0,0,0,0,0,0,0,0,0,0,0,0,0,0,0,0,0,0,0,0,0,0,0,0,0,0,0,0,0,0,0,0,0,0,0,0,0,0,0,0,0,0,0,0,0,0,0,0,0,0,0,0,0,0,0,0,0],"id":26,"left_children":[1,3,5,7,9,11,13,15,17,19,21,23,25,27,29,31,33,35,37,39,41,43,45,47,49,51,53,55,57,59,61,-1,-1,-1,-1,-1,-1,-1,-1,-1,-1,-1,-1,-1,-1,-1,-1,-1,-1,-1,-1,-1,-1,-1,-1,-1,-1,-1,-1,-1,-1,-1,-1],"loss_changes":[9.221798E0,1.4694362E0,2.1779375E0,5.7750416E-1,4.5340192E-1,6.4583695E-1,4.912424E-1,3.5195702E-1,5.4733706E-1,2.3254603E-1,2.9948902E-1,3.7423778E-1,1.01668775E-1,2.2378838E-1,2.0538855E-1,4.028231E-2,1.45853E-1,2.1124506E-1,4.2447805E-1,2.637564E-2,6.325984E-2,2.679549E-1,1.7910112E-1,3.756913E-1,3.399622E-1,1.0338807E-1,4.6453834E-2,1.1503345E-1,1.9080448E-1,1.5811205E-1,2.547139E-2,0E0,0E0,0E0,0E0,0E0,0E0,0E0,0E0,0E0,0E0,0E0,0E0,0E0,0E0,0E0,0E0,0E0,0E0,0E0,0E0,0E0,0E0,0E0,0E0,0E0,0E0,0E0,0E0,0E0,0E0,0E0,0E0],"parents":[2147483647,0,0,1,1,2,2,3,3,4,4,5,5,6,6,7,7,8,8,9,9,10,10,11,11,12,12,13,13,14,14,15,15,16,16,17,17,18,18,19,19,20,20,21,21,22,22,23,23,24,24,25,25,26,26,27,27,28,28,29,29,30,30],"right_children":[2,4,6,8,10,12,14,16,18,20,22,24,26,28,30,32,34,36,38,40,42,44,46,48,50,52,54,56,58,60,62,-1,-1,-1,-1,-1,-1,-1,-1,-1,-1,-1,-1,-1,-1,-1,-1,-1,-1,-1,-1,-1,-1,-1,-1,-1,-1,-1,-1,-1,-1,-1,-1],"split_conditions":[4.2502E0,1.2901E1,2.5599E1,5.7998E0,1.1299E0,7.4101E0,7.1598E0,2.5999E0,7.8992E0,1.66E1,2.7999E0,1.2799E1,8.34E0,6.2998E0,3.5E1,1.7301E0,3.9996E0,2.4996E0,1.0299E0,1.5799E1,1.0299E0,1.8601E0,1.71E1,1.23E1,8.0002E0,1.32E1,2.28E1,5.15E0,3.1401E1,8.1601E0,9.4E0,5.966568E-3,1.9807158E-2,1.2389967E-2,-8.849487E-4,2.4740623E-2,1.26639325E-2,-1.28655825E-2,8.0849035E-3,-5.4688137E-3,7.833672E-3,-3.4941006E-2,-8.190537E-3,-6.738887E-4,7.478016E-3,3.5570774E-3,2.361421E-4,9.389765E-4,1.0474751E-2,-4.285326E-3,-5.2415976E-6,-4.688802E-3,5.1831984E-4,-4.949051E-3,-9.550092E-3,3.6715984E-3,-1.5989186E-2,-3.4718749E-3,-8.817043E-3,-7.945597E-3,-1.2022356E-2,-9.823867E-3,-2.0382127E-2],"split_indices":[1,0,0,2,1,1,1,1,0,0,1,0,1,2,0,1,0,0,1,0,1,1,0,2,2,2,0,1,0,1,2,0,0,0,0,0,0,0,0,0,0,0,0,0,0,0,0,0,0,0,0,0,0,0,0,0,0,0,0,0,0,0,0],"split_type":[0,0,0,0,0,0,0,0,0,0,0,0,0,0,0,0,0,0,0,0,0,0,0,0,0,0,0,0,0,0,0,0,0,0,0,0,0,0,0,0,0,0,0,0,0,0,0,0,0,0,0,0,0,0,0,0,0,0,0,0,0,0,0],"sum_hessian":[4.38E3,1.779E3,2.601E3,8.65E2,9.14E2,1.588E3,1.013E3,1.24E2,7.41E2,1E1,9.04E2,1.169E3,4.19E2,4.69E2,5.44E2,1.4E1,1.1E2,2.29E2,5.12E2,4E0,6E0,2.54E2,6.5E2,2.07E2,9.62E2,3.2E2,9.9E1,2.7E1,4.42E2,5.19E2,2.5E1,4E0,1E1,8E0,1.02E2,1.6E1,2.13E2,9E0,5.03E2,2E0,2E0,4E0,2E0,5E1,2.04E2,3.11E2,3.39E2,1.51E2,5.6E1,2.5E2,7.12E2,2.76E2,4.4E1,4.2E1,5.7E1,3E0,2.4E1,3.6E2,8.2E1,3.85E2,1.34E2,6E0,1.9E1],"tree_param":{"num_deleted":"0","num_feature":"3","num_nodes":"63","size_leaf_vector":"1"}},{"base_weights":[-1.688391E-4,3.802822E-2,-4.5162313E-2,6.773161E-2,1.1673726E-2,-2.0406911E-2,-6.505934E-2,